#define NUM_CLASSES 10
#define NUM_FEATURES 784

double weights[NUM_CLASSES][NUM_FEATURES]={
 {0.0000000000, 0.0000000000, 0.0000000000, 0.0000000000, 0.0000000000, 0.0000000000, 0.0000000000, 0.0000000000, 0.0000000000, 0.0000000000, 0.0000000000, 0.0000000000, 0.0045801203, 0.0056380100, 0.0036690327, 0.0036690336, 0.0000000000, 0.0000000000, 0.0000000000, 0.0000000000, 0.0000000000, 0.0000000000, 0.0000000000, 0.0000000000, 0.0000000000, 0.0000000000, 0.0000000000, 0.0000000000, 0.0000000000, 0.0000000000, 0.0000000000, 0.0000000000, 0.0182166943, -0.0430040266, 0.0047361128, 0.0223461136, 0.0005951896, 0.0425293628, -0.0005277575, 0.0145020788, 0.0464709371, 0.0521005626, -0.1490933370, 0.0813560306, -0.0091267343, 0.0780455518, -0.1503798201, 0.0060096061, 0.0158811044, 0.0102024127, 0.0057626800, 0.0074379482, 0.0000000000, 0.0000000000, 0.0000000000, 0.0000000000, 0.0000000000, 0.0000000000, 0.0042686775, 0.0111805567, 0.0125353772, 0.0240471890, -0.0146240006, 0.0364070722, -0.0025338325, -0.0698708344, 0.0240339348, -0.0203728366, -0.2224495653, 0.0750736084, -0.1138378036, -0.1518306323, -0.0126540507, -0.2009361852, -0.0968888615, 0.0413020170, -0.1391017202, 0.0170217436, 0.0176530872, -0.0047166737, -0.0003651704, -0.0019488851, 0.0000000000, 0.0000000000, 0.0000000000, 0.0000000000, 0.0079301945, -0.0180008171, -0.0003522431, 0.0525247062, -0.0680975675, -0.0826957167, 0.0452140812, -0.0854851073, -0.0832321197, 0.0281271962, -0.0693938831, 0.0376117016, -0.0384813194, -0.0311167220, -0.0087865403, -0.0177634225, -0.0375092933, -0.0605000834, 0.0152050985, -0.0357148664, -0.0293413071, 0.0124078150, -0.0129496714, 0.0188766543, -0.0351598232, 0.0000000000, 0.0000000000, 0.0103177511, 0.0165794561, -0.0089954582, -0.0090546187, -0.1144623923, -0.0014287102, -0.0164207223, -0.0148831813, 0.0470015278, -0.0682907134, 0.0490516761, -0.0780647424, 0.0893002519, -0.0874209112, 0.0913253010, -0.1197727556, 0.0643866199, -0.0086867968, 0.0097028129, 0.0038714636, -0.0056415683, -0.0000287960, 0.0078154621, -0.0323867662, 0.0265852459, -0.0104996897, 0.0049785370, 0.0000000000, 0.0000000000, -0.0037687028, 0.0039424465, 0.0020495440, -0.0818520140, 0.1221295007, -0.0387654684, 0.0213633169, -0.0207572240, 0.1004238651, 0.0044526266, -0.0679562663, 0.0406825179, 0.0034746597, 0.0554443938, 0.0076130583, 0.0079174243, 0.0221787233, -0.0078948194, -0.0141040110, -0.0294817908, -0.0293659820, -0.0079717514, 0.0070237849, -0.0581282849, 0.0184869363, 0.0003689152, 0.0000000000, 0.0057182121, -0.0235966964, 0.0177888930, -0.0028934089, -0.0357336729, -0.0870442939, -0.0460200091, 0.0581768018, -0.1380466214, -0.0303907728, -0.0373488242, -0.0146877747, 0.0596229353, -0.0175919921, 0.0041450939, 0.0026561713, -0.0029848803, 0.0340007974, -0.0165264875, -0.0033061949, 0.0697786632, 0.0560295721, -0.0156523511, -0.0668209278, -0.0811005708, -0.0301415820, -0.0029536478, -0.0009741641, -0.0046613108, -0.0188048794, -0.0320286851, 0.0105290986, 0.0665856597, 0.0818183992, 0.0096710658, -0.1117313055, 0.0651860851, -0.0125044112, 0.0728904385, -0.0605277256, 0.0205163843, 0.0447164463, -0.0365908836, -0.0092239864, 0.1238323400, 0.0069981877, 0.0718793504, -0.0141833875, -0.0446401568, -0.0506584369, 0.0285225437, -0.0243907681, -0.0072099808, -0.0348586253, 0.0216880204, 0.0307066890, -0.0093683822, 0.0276416767, 0.0257313054, -0.0584076281, -0.1180820831, 0.0130100864, -0.0106767114, 0.0534266547, -0.0110102397, 0.0082369062, -0.0698160546, 0.1062927472, -0.0662245798, 0.0703812226, 0.0241422578, 0.1103477858, 0.0155252444, 0.0461179573, -0.0208657496, 0.0472862983, 0.0524074967, 0.0490143247, -0.0007274884, -0.0433838493, -0.0930446416, -0.0313091715, -0.0051169727, -0.0033438907, -0.0014262453, -0.0827733597, 0.0846642479, -0.0523297590, 0.0585552029, -0.0306103795, 0.0098676269, 0.0100162451, -0.0064302050, 0.0827035196, -0.0732470638, -0.0891815272, 0.1140603619, 0.0011544769, -0.0404252207, 0.0205004197, 0.0640503879, -0.0032613686, 0.0788942989, 0.0505476444, -0.0282208863, -0.0788542782, 0.0250321993, -0.0225633806, -0.0315490127, -0.0379165335, 0.0209252187, 0.0188142505, -0.0975390582, 0.2442340780, -0.2909537758, 0.0659165602, 0.0160749136, 0.0309727134, 0.0125010070, -0.0861830568, 0.0671827367, -0.0364108817, 0.1097699015, 0.0056681183, -0.0568787490, 0.0339814361, 0.0558126289, 0.0577453046, 0.0486298853, 0.1371563795, -0.0270437655, -0.0011582277, 0.0169025776, 0.0917078468, 0.0355599639, 0.0044588076, -0.0125334798, -0.0474153564, 0.0213955456, -0.0226806090, 0.2196890560, -0.3621952251, 0.1885203998, -0.0741709434, -0.0698679719, 0.0144880118, 0.0050784368, 0.0450497352, -0.0897321033, -0.0315761877, 0.0262753921, -0.0927044095, 0.0187225949, -0.1038887618, -0.0737715598, -0.1245271759, 0.0800457281, -0.0938782531, 0.0448074936, 0.0625835007, 0.0402601111, 0.0043716496, 0.0188097685, -0.0171374694, -0.0351891244, -0.0019393857, 0.0174489359, 0.0135742776, -0.0579606763, -0.0277522157, -0.1258437302, -0.0648016627, 0.0467168553, 0.0234012662, -0.0361804622, 0.0199040560, 0.0559467485, -0.0292920623, 0.0167150935, 0.0874433191, 0.0193417967, -0.1088418238, -0.1302241869, -0.0140423749, -0.0185012727, -0.0018602429, 0.0034353233, 0.0575662906, 0.0206086173, 0.0264796067, -0.0192085819, 0.0567000531, -0.0037058468, -0.0884168079, 0.0196669475, 0.0089624392, 0.0222968383, 0.0082762500, 0.0522319305, 0.1062554125, -0.1013037186, 0.0947060520, -0.0082120519, 0.0284160853, 0.0099410775, 0.0819437997, 0.0044141106, -0.0575818141, -0.1839000572, 0.0185943464, -0.1664552934, -0.0822204199, -0.0184745040, 0.0052707710, 0.0209815040, -0.1484225983, -0.0220334900, 0.0562402445, 0.0387883176, -0.0136957488, 0.0095091248, -0.0503193511, 0.0094137533, 0.0030984943, 0.0064342517, 0.0085182550, -0.0685792449, -0.0659490258, 0.0928331791, -0.0050302114, 0.1368219683, -0.0376315754, 0.0209922907, -0.0346647942, 0.0247327377, 0.0999809978, 0.0670312836, -0.3712740554, 0.1304931126, -0.2058158491, 0.0303616314, -0.0138576495, -0.0495761402, 0.0932896445, 0.0489079394, -0.0356394848, 0.0214453431, -0.0193583288, 0.0049457022, -0.0031927032, 0.0011273184, 0.0036158835, -0.0036299637, 0.0029294604, -0.0282149960, 0.0321010256, -0.0108974163, -0.0690984730, 0.0707426876, 0.0583134645, 0.0664282225, 0.0914799995, -0.0592267707, -0.0123200043, -0.0569661323, -0.2466544571, -0.0026581225, -0.1187127675, -0.0200478261, -0.0092172706, -0.0231531327, 0.0192104805, -0.0246756891, 0.0365916890, 0.0177408228, 0.0529027383, -0.0045981818, 0.0054730233, 0.0083347707, 0.0030737433, 0.0049420418, 0.0196635103, -0.0145150825, -0.0169587426, 0.0515089166, 0.0131215099, 0.0344049269, 0.0490573021, 0.0508143836, 0.0161748927, 0.0711601439, -0.0295560969, -0.2399510719, -0.1207090513, -0.0107350458, -0.0709715064, 0.0301846872, -0.0528179577, 0.0012286643, -0.0164260640, 0.0394018090, -0.0713430912, -0.0123260302, -0.0243361069, -0.0503707136, -0.1270096983, 0.0333515024, 0.0000000000, 0.0127533603, -0.0106067672, -0.0114632209, 0.0267588042, 0.0096568264, 0.0549186845, 0.0251017827, -0.0291126597, 0.0374584049, 0.0578011859, -0.1024190224, 0.1277453025, -0.1818958582, -0.0722024481, -0.0621904686, -0.0327474563, 0.0299031687, 0.0137168145, 0.0237174270, 0.0773819206, -0.0488701025, 0.1149606468, -0.0125504168, 0.0383298497, 0.0215670938, -0.0237404876, 0.0167139667, 0.0036601444, 0.0002223920, 0.0149612483, -0.0267070962, -0.0134953093, -0.0166582825, -0.0447779673, -0.0283485959, 0.0799254487, 0.0559174478, 0.0389021183, 0.0539432277, -0.0626153330, -0.1789168489, -0.0337408649, -0.0102240823, -0.0714992433, -0.0213883294, -0.0367660219, -0.0306419556, -0.0974425456, -0.0147900618, -0.0394511315, -0.0173095318, -0.0178323596, -0.0173511754, -0.0071648643, -0.0282164748, 0.0077875542, 0.0055236213, 0.0021522071, -0.0453589413, -0.0370678525, -0.0302018094, 0.0406666390, 0.0566102795, 0.0133114601, -0.0558383429, 0.0312042479, -0.0185502016, 0.1384839732, -0.0857816843, -0.0278330028, -0.0172978630, 0.0138267972, -0.0256153927, -0.0035971115, -0.0681340545, 0.0537523764, -0.0174810413, 0.0376439039, -0.0340674402, 0.0194967337, -0.0476934761, 0.0235166000, 0.0171209166, 0.0000000000, 0.0253950300, -0.1326739831, -0.0003352910, 0.0483472890, 0.0426541819, -0.0292641272, -0.0189712021, 0.0534863014, -0.0311127947, 0.0698463323, 0.0725749417, 0.0165432702, 0.0491727665, -0.1158530859, 0.0448213036, -0.1159180391, 0.0104827599, 0.0565094452, -0.0150777479, -0.0353508861, 0.0496985735, -0.0241052470, -0.0179186450, -0.0124740930, -0.0155852411, -0.0148021305, 0.0096998858, 0.0070330061, 0.0057786739, 0.0258754709, 0.0083828223, -0.0102935983, -0.0332336934, 0.0115576699, 0.0038664751, -0.0753653425, 0.0479593001, 0.0387646169, 0.0784668221, 0.0163914526, -0.0024762997, -0.0148424312, -0.0438443340, 0.0916673293, -0.2115889552, -0.0226727991, -0.0348654129, -0.0630409047, -0.1022934637, 0.0352674170, -0.0809627110, 0.0576323315, -0.1200479361, 0.0601434262, 0.0106336300, 0.0070330076, -0.0141375671, -0.0270077305, -0.0153229726, -0.0397041270, 0.0124460444, 0.0193133172, -0.0216581320, 0.0298219364, 0.0506195729, -0.0175818442, -0.0027754572, -0.0028864444, 0.1638855049, -0.0649172081, -0.0143807913, 0.0289970560, 0.0729075031, -0.1069961368, 0.0592629337, 0.0729132127, -0.0322687836, 0.0750294906, 0.0059730098, -0.0404624636, 0.0264292625, 0.0056216640, 0.0106336314, 0.0000000000, 0.0000000000, 0.0288433871, -0.0890862675, -0.0736340274, 0.0026190485, -0.0050918448, 0.0348098163, -0.0687322305, 0.0228530777, 0.0495126474, 0.0445339229, 0.0360111039, -0.0135649658, 0.0840614322, -0.0068211878, -0.0935014317, 0.0904660147, -0.0827086080, -0.0818017599, -0.0147544683, -0.0801085678, 0.0020625572, -0.0039231615, -0.0152266674, 0.0281868544, -0.0105635165, 0.0000000000, 0.0000000000, 0.0000000000, -0.0203298134, 0.0054320711, 0.0383264348, 0.0149015789, -0.0188989007, -0.0035185381, -0.0219903952, 0.0319487690, 0.0516425289, -0.1313186357, 0.0686976710, -0.0323253382, 0.0240585955, 0.0137183361, -0.0982434481, 0.0840382948, 0.0420082741, -0.0420302104, -0.0557098339, -0.0413881072, 0.0403586545, -0.0400318762, 0.0091853832, -0.0570682276, 0.0084359690, 0.0000000000, 0.0000000000, 0.0000000000, 0.0129932138, 0.0171090552, -0.0481134571, -0.0381555558, -0.0966875789, -0.0087925394, -0.0802720687, -0.0009447244, -0.3402035051, 0.2017971885, -0.3001194807, -0.0520317542, -0.1593917066, -0.1022676089, -0.1503557793, 0.0374553224, -0.3212446183, -0.1021282954, -0.0438862989, -0.0231129759, -0.0393653317, -0.0158469056, 0.0065888454, 0.0109700580, 0.0066430304, 0.0000000000, 0.0000000000, 0.0000000000, 0.0000000000, -0.0008222200, 0.0321285334, 0.0293089739, -0.0008078196, -0.0544192326, -0.0237343220, -0.0592389099, -0.0811520416, -0.1207642644, -0.0019533671, -0.1122790112, -0.0511552416, -0.1937847519, -0.1552540231, -0.1798222860, -0.1220049288, 0.0783199284, -0.0026114178, -0.0173832053, 0.0133009766, 0.0129695276, -0.0012567920, 0.0093174876, 0.0000000000, 0.0000000000, 0.0000000000, 0.0000000000, 0.0000000000, 0.0000000000, 0.0136997443, -0.0096666323, 0.0087096840, -0.0006434328, 0.0177181950, -0.0057629070, -0.0049081579, 0.0121120153, 0.0121887948, -0.0323300873, 0.0061896703, 0.0212788657, 0.0146800116, 0.0402944828, 0.0116526109, 0.0301146550, 0.0090650242, -0.0147287986, -0.0047426412, 0.0079466614, 0.0000000000, 0.0000000000, 0.0000000000, 0.0000000000},
 {0.0000000000, 0.0000000000, 0.0000000000, 0.0000000000, 0.0000000000, 0.0000000000, 0.0000000000, 0.0000000000, 0.0000000000, 0.0000000000, 0.0000000000, 0.0000000000, 0.0034738314, 0.0071127034, 0.0076552271, 0.0076552285, 0.0000000000, 0.0000000000, 0.0000000000, 0.0000000000, 0.0000000000, 0.0000000000, 0.0000000000, 0.0000000000, 0.0000000000, 0.0000000000, 0.0000000000, 0.0000000000, 0.0000000000, 0.0000000000, 0.0000000000, 0.0000000000, -0.0071936035, 0.0070213775, 0.0051663092, 0.0177666167, -0.0026862000, 0.0070812981, 0.0111864745, 0.0222062243, 0.0176564782, 0.0107332087, -0.0089948828, 0.0221304866, -0.0471958257, 0.0048770950, 0.0295769973, 0.0154204486, 0.0045776442, 0.0080424590, 0.0190550829, 0.0076085925, 0.0000000000, 0.0000000000, 0.0000000000, 0.0000000000, 0.0000000000, 0.0000000000, 0.0033436744, -0.0019853525, 0.0111253793, 0.0263801565, 0.0323750583, 0.0305061459, -0.0147569106, -0.0042935128, -0.0032932921, -0.0171141694, -0.1002611217, 0.1522121558, -0.1300705917, 0.1196592972, -0.0225918661, 0.0819786896, -0.0507073722, 0.0710530213, -0.0458622128, -0.0011721181, -0.0145971655, -0.0163110609, 0.0240013019, -0.0056520421, 0.0000000000, 0.0000000000, 0.0000000000, 0.0000000000, 0.0140546845, 0.0017353631, 0.0363120381, -0.3056512854, 0.0053278585, 0.0600597718, -0.0537399328, -0.0635692894, -0.0228712432, -0.1274178545, -0.0264504891, -0.0145494119, -0.1024267483, 0.0009564890, -0.0462937758, 0.0065409969, -0.0880685497, 0.0148725818, -0.0322604763, -0.0072274359, -0.0071029630, -0.0044989739, -0.0202024570, 0.0552841414, 0.0106651820, 0.0000000000, 0.0000000000, 0.0148094868, 0.0379900381, -0.0445428729, -0.0128277324, 0.0465693559, -0.0449538522, -0.1173326151, 0.1301347619, -0.0233891537, 0.0117309373, -0.0105939625, -0.0285820967, 0.0111470733, 0.0167175679, -0.0501773330, -0.0114183989, -0.0057065976, -0.0435825605, 0.0213036191, -0.0150833270, 0.0075129922, -0.0222903643, 0.0099571289, -0.0461428668, -0.2368119372, 0.0452507037, -0.0086786620, 0.0000000000, 0.0000000000, -0.0027474383, 0.0281340420, 0.0232146771, 0.0809962941, 0.0093246494, -0.0948189356, -0.0622840079, -0.0874186780, -0.0156208565, -0.1306309294, -0.1024408520, -0.0394018079, -0.1039222898, 0.0451761178, -0.0470749557, -0.0798165497, -0.0093336083, -0.0258478488, -0.0163040180, 0.0187935284, 0.0504639739, 0.0003959095, 0.0724837063, -0.0611676855, 0.0007828774, 0.0111638796, 0.0000000000, 0.0177472429, -0.0287166911, 0.0045508013, -0.0257380520, -0.1756516950, 0.2043414829, -0.1239831252, -0.0448695937, -0.1251700485, -0.0245584082, 0.0483445729, -0.0559562683, -0.0185690292, -0.0227669157, -0.1098054970, -0.0703431008, -0.0932497622, 0.0064446324, -0.0489111048, -0.0289417605, -0.0168978290, -0.0547636374, 0.0564152114, -0.0779552138, -0.2063563466, 0.0485813761, 0.0183121504, 0.0155191914, -0.0415184758, -0.0260645264, -0.1467544925, 0.2449689989, -0.0770281036, -0.1551909872, 0.1919097419, -0.2005215711, 0.0518662794, -0.0217940793, -0.1137091123, 0.0490005211, -0.1104656803, 0.0056304849, -0.0941210970, 0.0298327167, -0.0259895889, -0.0473324688, -0.0164015112, 0.0838386279, 0.0589404210, -0.0541854385, -0.0421207131, -0.0347021701, -0.1060245330, 0.0682727665, -0.0174237913, 0.0069473720, 0.0100054760, 0.0335082905, -0.0327563657, -0.0402726302, 0.0089523270, -0.1876850003, -0.0720182688, -0.0207471561, -0.1711861591, 0.0144190003, -0.0700675656, 0.0234796209, 0.0271046135, -0.0122491859, 0.0150853082, -0.1042316583, 0.0747872796, -0.0010322549, 0.0604174316, -0.1353061944, -0.0417644191, 0.0216516569, 0.0090461507, -0.1871114863, -0.0813299563, 0.0456683542, 0.0175080026, 0.0024709369, -0.0781094841, 0.0402689367, 0.0377717444, 0.0617900635, -0.1783989230, 0.0692575810, 0.2021062899, -0.0257314459, -0.0053722663, -0.0415759026, -0.0112258436, -0.0139017383, 0.0179222730, 0.0334702324, 0.0686518718, 0.0271098441, -0.0803147292, 0.0197532985, -0.0787785248, -0.0042599680, -0.0069106836, 0.0023968622, -0.1653312690, 0.1167841815, -0.2743234139, 0.0495616725, -0.0556267983, 0.0073165117, 0.0414326684, 0.0361138734, -0.0646275410, -0.1394664395, -0.1261616698, -0.1622435309, -0.1304476811, 0.0995152145, -0.0379501717, 0.0400629233, 0.0459387571, 0.0166713716, 0.0511157110, 0.1061599150, 0.1032828439, 0.0541823303, 0.0760600826, -0.1090001649, 0.0322478034, -0.1226654785, -0.0214392649, 0.0350207439, 0.0274304488, -0.2065859915, 0.0233640072, -0.0506792135, 0.0673659893, 0.0190511650, -0.0144168833, 0.0497879463, -0.0621484550, 0.0986434249, 0.0251274435, -0.1360253151, -0.1275281781, -0.1173439892, -0.1545395988, -0.0266702293, -0.0230382504, -0.0809465207, 0.0679774624, 0.0528912286, 0.1337085521, 0.0445386112, -0.0153005897, -0.0046795514, -0.0084739457, 0.0243241316, 0.0694153490, -0.1799232168, 0.0526959393, -0.1021218318, -0.0037105998, -0.0004600451, -0.0248465076, 0.0141844881, 0.0323403680, -0.1738295565, 0.0440800946, 0.0092082083, -0.1081271948, 0.1276534509, 0.1195875149, -0.1131746587, 0.1015000568, -0.0787311325, -0.0747724342, 0.0161865623, 0.0292550713, 0.1272479066, 0.1100244462, -0.0418875978, 0.0265791108, 0.0347457611, -0.0742587211, 0.0022763064, -0.0643323920, -0.0886427539, 0.1243084023, 0.0727759020, -0.0258769355, -0.0598485486, 0.0247831883, 0.0165170993, 0.0294713819, -0.0447396430, -0.0011333994, -0.0004329996, -0.1167366923, 0.1536438980, 0.0556433257, -0.0200986992, 0.0620095672, -0.1616375404, -0.0513798619, 0.0066273492, 0.0094651095, 0.0766074487, 0.0272842758, 0.0656727707, 0.0756160539, -0.0740870891, -0.0503103475, -0.0059351383, -0.0339481479, -0.0889665243, 0.0015369637, -0.0934245125, -0.1132931696, 0.0106819727, -0.0022628433, 0.0037900348, 0.0176520425, -0.0332338315, -0.0393158548, 0.1433628495, 0.0454223648, 0.0651694489, -0.1790689070, 0.0668488004, -0.1191812074, -0.0907351618, -0.0896345517, -0.0371792886, -0.0034996935, 0.0822559080, 0.0608543794, -0.0221206159, -0.0225197742, -0.1865449786, 0.0223475073, 0.0716024332, -0.0542253081, 0.0894293894, -0.0648853845, 0.1675994490, 0.0266238294, 0.0002992697, 0.0095544653, 0.0049883561, 0.0009147390, 0.0242425120, 0.0527395099, -0.0047867347, -0.1790807571, -0.1096082632, 0.0129833933, 0.0933107606, -0.0467628338, -0.1539885504, -0.0162939928, 0.0727565979, 0.0754715079, 0.0791298003, -0.0165226597, 0.1176503035, -0.0590762093, 0.0207786619, -0.1750429512, -0.0540920334, -0.0794859868, -0.0524588318, -0.0940007023, 0.0066694557, -0.0628780208, 0.0151501551, 0.0006457832, 0.0068016189, 0.0060482699, 0.0141757818, -0.0584573557, 0.1005390396, -0.0463716844, -0.0117692977, -0.0844738296, -0.1968004783, 0.1360532713, -0.0600055898, 0.0005538761, -0.1085722425, -0.0237906294, 0.0543078336, -0.0921222790, 0.0180687805, -0.1800562215, -0.1039989753, -0.1477907873, -0.0407756775, 0.0164864577, -0.0429944128, -0.1630933138, 0.1265265695, -0.0930846931, -0.0235334240, 0.0206508643, 0.0000000000, 0.0136532199, -0.0050483586, -0.0390645626, 0.0373904338, -0.0745613137, 0.0815008820, 0.1346388860, 0.0418380192, -0.1049963252, 0.0117278314, -0.0602105284, 0.0531149935, 0.0973308927, 0.1079920503, 0.0358612301, 0.0205254312, -0.1517636625, -0.0018194372, 0.0985398514, 0.0231309997, -0.0832211224, 0.2000114597, -0.0978975338, 0.0781677464, -0.0939119513, 0.0035233699, -0.0047231738, 0.0002235747, -0.0042860813, 0.0136144413, 0.0160287824, -0.0336043337, -0.1072695553, -0.2816680364, -0.1684783017, -0.0234644921, 0.0131210946, -0.1508127718, -0.0332593258, -0.0204313242, -0.0491773983, 0.0470706771, -0.0613598645, -0.2505931779, 0.1133676919, -0.0065886254, -0.1075766529, 0.0174553650, -0.0051952395, -0.0668326669, -0.1571264293, 0.1139646886, -0.0320374098, 0.0028460640, 0.0060840072, 0.0153662237, 0.0077958238, -0.0217033714, 0.0144699744, -0.0222914156, -0.2312570331, 0.0778076102, 0.1264839823, -0.0712211793, 0.0485254760, 0.0383160491, -0.0497128115, -0.0575623923, 0.0288368793, -0.0379274851, 0.0667450692, 0.1460081237, -0.1738709481, -0.0468111485, 0.0643506128, -0.0121675882, 0.0298980300, 0.0119006995, -0.0276667303, 0.0191255342, -0.0302873798, -0.0019943109, 0.0123250350, 0.0000000000, -0.0002045993, 0.0315510955, -0.1094807806, 0.0662941242, -0.3427616487, -0.0153718313, -0.0966364671, 0.0067883150, 0.0455659302, -0.0321072531, 0.0849375344, 0.0883652548, -0.0341309394, -0.0079403886, -0.1262615599, 0.0019421274, 0.0453564931, 0.1283199654, 0.0530337755, 0.0076929778, -0.0767879668, 0.0428300230, 0.0026514025, 0.0223373236, -0.0311836426, 0.0430940739, 0.0086200964, 0.0157562440, 0.0079800549, -0.0146050024, 0.0725534151, -0.0012216873, 0.0621022078, 0.0801292033, 0.0808141508, 0.0435205855, -0.0507478576, 0.1107385490, -0.0786284238, -0.0216131858, 0.0180534886, 0.0133244340, 0.0412963169, 0.0569043178, -0.0335207257, 0.0647332835, -0.1119409914, -0.0018836405, 0.1204278025, -0.0471951658, -0.2688150214, 0.1820901834, -0.0140043835, -0.0102917321, 0.0113637552, 0.0157562460, -0.0060829919, 0.0134963876, -0.0307304577, 0.0236677439, 0.1671038538, -0.0612266104, -0.0673954999, 0.0097190464, 0.0296238092, -0.0595393718, -0.0138636159, -0.0974665719, -0.1148816343, 0.0417312200, -0.0395850674, -0.0185529248, 0.0029665628, 0.1640164771, -0.0196495146, 0.0778711546, 0.0836537047, -0.1543563117, 0.0732627331, -0.0957418461, 0.0969862016, -0.0013533778, 0.0113637573, 0.0000000000, 0.0000000000, 0.0389236466, -0.1044248819, -0.0641798579, -0.0212277419, 0.0332306046, 0.0251304440, -0.0361275909, -0.0042296437, -0.0510574678, -0.0513853312, 0.0396845602, -0.0086848278, -0.1006432389, 0.0452151345, 0.0101825860, 0.0692835074, -0.1308283942, 0.0166070501, -0.0482675931, -0.0497103774, 0.1329062584, -0.1237311590, -0.0317454344, 0.0044949303, 0.0233613498, 0.0000000000, 0.0000000000, 0.0000000000, 0.0135891172, 0.0087389008, -0.0281019302, 0.0107175290, -0.0249951070, 0.0240898255, -0.0663612993, 0.0122365097, -0.0291273158, -0.0264005396, -0.0544623077, -0.0791181924, -0.0588778631, 0.0124196865, -0.1535010695, 0.0754940557, -0.0556533235, 0.1349538502, -0.0317801069, 0.0169063092, -0.0798788224, 0.0616139376, -0.0004469398, 0.0099847660, 0.0520867185, 0.0000000000, 0.0000000000, 0.0000000000, 0.0072791294, -0.0058375748, 0.0152232215, -0.1058755967, 0.0532513092, -0.1215291399, -0.0622313728, -0.1010970314, -0.2075880523, -0.2325382739, -0.0845976157, -0.1175422050, -0.0413862706, -0.1669594949, -0.1555010891, -0.1221159361, -0.1760632862, -0.0864172138, -0.0470758110, -0.0283668921, 0.0002357042, 0.0146239210, 0.0192522274, -0.0107615219, -0.0401045342, 0.0000000000, 0.0000000000, 0.0000000000, 0.0000000000, 0.0028323558, 0.0128393342, -0.0136613285, -0.0330735659, -0.0032442191, -0.0356718669, -0.0656495573, -0.0400325078, -0.0657894000, -0.2173868090, -0.1503088411, -0.0994415625, -0.0470818936, 0.0058954909, -0.0577775319, 0.0146840848, -0.0013280761, -0.0153501676, 0.0438202122, 0.0078027780, -0.0328399881, 0.0164210798, 0.0051608336, 0.0000000000, 0.0000000000, 0.0000000000, 0.0000000000, 0.0000000000, 0.0000000000, 0.0035140394, 0.0215217398, -0.0243367588, 0.0381373636, -0.0060910202, 0.0332330193, 0.0096261287, -0.0283069861, 0.0570258493, 0.0167484806, -0.0064487943, 0.0204323710, -0.0106436265, 0.0401374598, -0.0663366697, 0.0418344275, 0.0025395280, -0.0001839480, -0.0060196408, 0.0101502455, 0.0000000000, 0.0000000000, 0.0000000000, 0.0000000000},
 {0.0000000000, 0.0000000000, 0.0000000000, 0.0000000000, 0.0000000000, 0.0000000000, 0.0000000000, 0.0000000000, 0.0000000000, 0.0000000000, 0.0000000000, 0.0000000000, 0.0015117850, 0.0052441426, 0.0070225165, 0.0070225173, 0.0000000000, 0.0000000000, 0.0000000000, 0.0000000000, 0.0000000000, 0.0000000000, 0.0000000000, 0.0000000000, 0.0000000000, 0.0000000000, 0.0000000000, 0.0000000000, 0.0000000000, 0.0000000000, 0.0000000000, 0.0000000000, 0.0031478079, 0.0040263607, -0.0192402431, 0.0044529967, 0.0026559002, -0.0097858983, 0.0057473695, 0.0056306196, -0.0192712951, -0.0159850625, 0.0052883292, -0.0094080182, 0.0148913658, -0.0122977971, 0.0059466885, -0.0963415761, 0.0019685891, 0.0023737296, 0.0045113060, -0.0021433325, 0.0000000000, 0.0000000000, 0.0000000000, 0.0000000000, 0.0000000000, 0.0000000000, 0.0021824563, -0.0029158056, 0.0044322858, -0.0095905915, 0.0157499674, -0.0132931212, -0.0033728202, 0.0080499872, -0.0296398570, -0.0044674715, 0.0004459832, -0.0173572649, -0.0163703293, 0.0003803704, -0.0254544374, -0.0129031975, -0.0101985405, -0.0251537285, -0.0235783490, 0.0033217003, -0.0343814799, 0.0233595113, 0.0210845303, 0.0078113056, 0.0000000000, 0.0000000000, 0.0000000000, 0.0000000000, 0.0034315643, 0.0078952641, -0.0048645030, 0.0020327821, -0.0095410492, 0.0117473184, -0.0190150385, 0.0248011895, 0.0061055109, 0.0041259658, 0.0004057701, 0.0158568692, -0.0059509863, -0.0176965628, 0.0085336452, -0.0057630595, -0.0277745452, -0.0005230474, 0.0003133344, -0.0106540451, 0.0235345156, -0.0431061938, -0.0746566088, 0.0175606107, 0.0003059039, 0.0000000000, 0.0000000000, 0.0009613772, -0.0035467704, -0.0064266423, -0.0065244270, -0.0068957514, 0.0254057438, 0.0146792362, -0.0183037169, 0.0318391642, 0.0091655667, 0.0018775085, 0.0285222996, -0.0010016817, 0.0415845261, -0.0155759063, 0.0198116045, -0.0295664642, 0.0002620154, -0.0263069669, -0.0161092837, -0.0207969782, -0.0451422344, -0.0287577705, -0.1042385822, 0.0469816586, -0.0162139213, -0.0040083196, 0.0000000000, 0.0000000000, -0.0000522428, 0.0043542667, 0.0087348450, -0.0034360845, -0.0151808835, -0.0010570960, 0.0202252411, -0.0211091295, 0.0080475313, 0.0215768637, 0.0124416854, 0.0428030851, 0.0030551741, 0.0193331296, 0.0485692040, 0.0162504047, 0.0269988109, -0.0096134584, 0.0035168805, 0.0083504605, 0.0090502029, 0.0291753734, -0.0574217973, 0.0213774199, 0.0049119676, 0.0003398931, 0.0000000000, 0.0048461689, -0.0137068875, -0.0095645303, -0.0085492433, -0.0023226174, -0.0154526587, 0.0094361161, -0.0110978326, 0.0106034190, 0.0250952805, -0.0078089485, -0.0065993789, 0.0182832059, -0.0132628011, 0.0269205110, -0.0034764188, 0.0185781518, -0.0150432402, -0.0035697911, -0.0381610930, -0.0100212359, -0.0133803780, -0.0284291576, -0.0215628241, -0.0390874182, 0.0151385467, -0.0093636581, 0.0044469281, -0.0127275512, 0.0267403012, 0.0284977548, 0.0051723810, 0.0066157057, 0.0356514568, -0.0330865423, 0.0299818393, -0.0277494649, -0.0310194448, 0.0359611291, -0.0184564876, 0.0325662249, 0.0229596960, -0.0309607003, 0.0206666840, -0.0594759094, -0.0076228401, -0.0269975107, -0.0258228336, 0.0173500748, 0.0303111588, -0.0786937944, -0.0627341327, 0.0942368460, -0.0404596307, 0.0181605266, -0.0045411403, 0.0170998300, -0.0134793578, -0.0522192475, 0.0032980203, -0.0248275526, -0.0027696676, 0.0278703994, 0.0129344265, -0.0036359841, 0.0373616530, -0.0050866396, -0.0111854522, -0.0109237681, 0.0288833262, -0.0055284197, -0.0222574251, 0.0261271711, -0.0205641438, 0.0210100159, 0.0323841176, -0.0063480522, -0.0305747787, 0.0580095737, -0.0831079874, -0.1743537787, 0.0156941248, 0.0166916712, 0.0045514370, -0.0232705360, 0.0006290884, 0.0113114017, 0.0008535923, 0.0640185672, -0.0959523767, 0.0180301053, -0.0493924011, 0.0217488425, 0.0101473629, 0.0295380582, -0.0202666540, 0.0006127492, -0.0180367964, 0.0235464760, 0.0442928755, -0.0265895780, 0.0204346979, -0.0017844172, -0.0216894888, -0.0357637262, 0.0327577619, 0.0142825543, -0.0872656845, -0.0020218941, -0.0127074653, 0.0030910163, 0.0037926175, -0.0018684932, -0.0226975752, 0.0452185620, -0.0436353896, 0.0051149365, 0.0840038092, -0.0524889060, 0.0248017140, 0.0075107198, -0.0266619552, 0.0230888191, 0.0131830982, -0.0113391693, 0.0356893354, -0.0436696857, -0.0224321807, 0.0593674094, 0.0363576891, -0.0286235291, 0.0190434378, 0.0187407684, -0.0216704219, -0.0234456974, -0.0110158528, -0.0494662984, 0.0489968067, -0.0094086197, 0.0044841648, -0.0451320481, -0.0628281159, -0.0431521826, 0.0089588927, 0.0224455460, 0.0159677609, 0.0272896867, -0.0872874303, -0.1104286875, -0.0901061724, -0.0864509381, -0.1127461858, -0.1016879790, -0.0760332803, -0.0170185508, -0.0079152045, -0.0513473089, -0.0128421451, 0.0303473225, -0.0486437699, -0.0109503855, -0.0003554625, 0.0468713671, -0.0420253985, 0.0189881255, -0.0553382889, 0.0035611174, 0.0021202175, 0.0195983058, 0.0486990233, -0.0223356867, 0.0244667255, 0.0098214948, -0.1666126659, -0.1435002947, -0.0243551431, -0.0421943425, -0.0444850765, -0.1113064206, -0.0582500919, -0.0396239024, -0.1279639118, -0.0872765076, 0.0063075797, -0.0422630721, -0.0302853518, 0.0612319955, 0.0219315895, 0.0287118251, -0.0087751571, -0.1387719205, -0.0006893932, 0.0177459842, 0.0210724449, -0.0217166599, 0.0011924024, 0.0046662311, -0.0043025645, -0.0017877551, -0.0845396501, -0.0364019352, -0.0140459059, -0.0997904189, -0.0740618907, -0.0421719200, -0.0382330322, 0.0018440160, -0.0225237382, -0.0070765990, -0.0075859675, -0.0254336296, -0.0613970026, 0.0051059939, -0.0119973426, -0.0599670820, -0.0297706514, -0.0347680902, -0.0275938102, -0.0170534937, 0.0484244502, 0.0034630220, 0.0172563273, 0.0098542698, 0.0020449227, -0.0194021232, 0.0154714278, -0.0238219186, -0.0050355433, -0.1414684654, -0.0899461598, 0.0608897661, -0.0305651252, -0.0209244972, -0.0189793392, -0.0013074626, 0.0216732639, -0.0337728713, 0.0238367882, -0.0210681676, 0.0222850505, -0.0355769752, 0.0159510231, -0.0164632430, 0.0178713888, -0.0198755139, -0.0222389413, 0.0163972050, -0.0503962708, 0.0054311044, 0.0237653510, 0.0109845211, 0.0034855591, 0.0027889935, -0.0029877450, 0.0213328600, 0.0209048872, 0.1386035881, 0.0358157189, -0.0730711707, 0.0082565190, 0.0039707227, 0.0100153408, 0.0172804923, -0.0114074394, 0.0359758040, -0.0118902354, -0.0117547297, 0.0144565804, -0.0325677802, -0.0468778706, 0.0271713051, -0.0555002568, -0.0222579883, -0.0267611758, -0.0678849195, 0.0539784228, -0.0008523672, 0.0096076085, 0.0092252981, 0.0079415485, -0.0012357334, -0.0305275688, 0.0071699822, -0.0052070516, -0.0549140985, 0.0595943605, 0.0424268126, -0.0219441453, 0.0175406105, 0.0204820327, 0.0102621211, 0.0407356258, 0.0328258005, -0.0169346753, 0.0085312351, 0.0293371481, 0.0612692931, -0.0327598352, 0.0055946915, -0.0242440921, 0.0649677907, -0.0047554272, 0.0491250167, -0.0168026791, 0.0193074949, 0.0264143625, 0.0017508685, 0.0000000000, -0.0039429908, 0.0271913370, 0.0047190033, 0.0118733895, 0.0340332081, 0.0477931880, -0.0323611331, 0.0318827007, 0.0071038505, 0.0146367338, 0.0172111712, 0.0299458734, 0.0410736748, -0.0008082818, 0.0576550291, 0.0009989584, -0.0327603047, 0.0373368883, -0.0239693867, 0.0017387872, -0.0394804640, 0.0010938607, 0.0006066675, -0.0140924473, 0.0347065007, 0.0023697033, 0.0119742406, 0.0059645973, 0.0033660684, -0.0201938990, 0.0013519563, -0.0020438656, 0.0561238182, 0.0131930526, 0.0611656165, 0.0221529578, -0.0007293500, 0.0334512226, -0.0263582362, 0.0509735019, 0.0321109419, 0.0328267370, 0.0108883470, 0.0359707820, 0.0219000783, -0.0160123573, 0.0227612700, 0.0024540837, 0.0305360879, 0.0170356027, 0.0225813616, 0.0483337862, 0.0087899745, -0.0019808377, 0.0012950331, 0.0000412890, -0.0020346400, -0.0172015281, -0.0253606757, 0.0130572015, -0.0373068765, 0.0060368857, 0.0277415047, -0.0083712213, 0.0495292686, 0.0290372832, 0.0248476674, 0.0043570184, 0.0490045548, 0.0352081851, 0.0192040642, -0.0000493330, 0.0352380707, 0.0101823747, -0.0219037969, 0.0050795921, 0.0019221623, 0.0190269459, 0.0147730418, -0.0191106763, 0.0338009666, 0.0213699820, -0.0011049904, 0.0000000000, 0.0004340300, 0.0200281614, 0.0118973256, 0.0263973118, 0.0329397885, 0.0319244821, 0.0560310882, 0.0521824183, 0.0184525420, -0.0008911464, 0.0656490509, -0.0190693890, -0.0090321278, -0.0095094570, 0.0089262915, 0.0272596662, -0.0556850037, 0.0254628832, 0.0260607113, 0.0142295823, 0.0268727042, -0.0108651042, 0.0063950325, 0.0489174845, 0.0022627561, -0.0181214932, -0.0009773272, 0.0003189433, -0.0024269789, -0.0088456006, 0.0025554982, -0.0416075626, -0.0032792024, -0.0177686367, -0.0002849216, -0.0494160713, 0.0540686887, 0.0166469991, -0.0115235854, 0.0010752194, -0.0113702235, -0.0087919757, -0.0351321586, 0.0160603065, 0.0445599562, -0.0230034598, 0.0562455925, -0.0097363094, 0.0266514730, 0.0093258901, 0.0380086705, -0.0072904038, 0.0196257455, 0.0144361417, 0.0012206133, 0.0003189441, -0.0001169081, -0.0017028550, -0.0066649058, 0.0261037688, 0.0085491918, 0.0168608328, 0.0283879381, 0.0548198603, 0.0214491988, -0.0057303419, 0.0281797199, -0.0002246718, 0.0148890553, -0.0215740126, -0.0289735901, -0.0026802890, -0.0152407978, 0.0434565174, -0.0175020153, 0.0340875373, -0.0046373892, 0.0171133180, -0.0018711810, 0.0195346949, -0.0094573130, -0.0217522993, 0.0012206141, 0.0000000000, 0.0000000000, -0.0086833201, 0.0082963009, 0.0057735267, -0.0176343863, 0.0198135756, -0.0213431863, -0.0273367314, -0.0237594095, -0.0222610265, -0.0261651779, -0.0050677957, -0.0500696119, 0.0097318368, -0.0594024844, 0.0216784126, -0.0215173726, 0.0139625547, 0.0263562779, -0.0053731589, 0.0256753532, 0.0049865095, 0.0167243552, -0.0072299832, 0.0009752297, -0.0010989692, 0.0000000000, 0.0000000000, 0.0000000000, 0.0007484491, -0.0540968528, -0.0043296321, -0.0069245500, -0.0182952665, -0.0289665060, 0.0050079508, -0.0097545044, -0.0191568449, -0.0084765456, 0.0040514688, -0.0373954735, 0.0469540502, -0.0410825379, -0.0305970483, 0.0110865087, 0.0044610657, 0.0072252508, -0.0100290253, 0.0154432545, 0.0079893990, -0.0215805886, 0.0243320126, 0.0282058985, -0.0238574740, 0.0000000000, 0.0000000000, 0.0000000000, 0.0050126825, 0.0097608175, 0.0065128300, -0.2823766225, 0.0662189506, -0.0897882049, -0.0100024150, -0.1281927992, -0.0521364264, -0.0765727280, -0.0583945392, -0.0517599283, -0.0507680379, 0.0494684693, -0.0740635237, 0.0323328556, -0.0240077086, -0.0327341107, 0.0190580166, -0.0200487978, -0.0252982603, -0.0247253892, -0.0379239059, -0.0163630137, 0.0201288423, 0.0000000000, 0.0000000000, 0.0000000000, 0.0000000000, 0.0049063012, 0.0125270481, -0.0017300761, 0.0054886870, -0.0456183999, -0.0409441262, -0.0140634771, -0.0256867715, -0.1325935196, -0.0252216426, -0.0825200673, -0.1045081516, -0.1111079297, -0.1070721372, -0.1160354465, -0.0512733623, 0.0357753629, -0.0343357673, -0.0241951911, -0.1091409924, 0.0010076320, 0.0172867575, 0.0019744848, 0.0000000000, 0.0000000000, 0.0000000000, 0.0000000000, 0.0000000000, 0.0000000000, 0.0080486735, 0.0089299220, 0.0006141127, 0.0042226702, 0.0148579417, 0.0070064355, -0.0104826556, -0.0299278587, 0.0089650237, 0.0228815973, 0.0375450658, 0.0227908831, 0.0405744005, 0.0371134952, 0.0157326246, 0.0017189434, 0.0172779158, -0.0042178103, 0.0125756272, 0.0100990767, 0.0000000000, 0.0000000000, 0.0000000000, 0.0000000000},
 {0.0000000000, 0.0000000000, 0.0000000000, 0.0000000000, 0.0000000000, 0.0000000000, 0.0000000000, 0.0000000000, 0.0000000000, 0.0000000000, 0.0000000000, 0.0000000000, -0.0000405149, 0.0014408241, 0.0025281929, 0.0025281935, 0.0000000000, 0.0000000000, 0.0000000000, 0.0000000000, 0.0000000000, 0.0000000000, 0.0000000000, 0.0000000000, 0.0000000000, 0.0000000000, 0.0000000000, 0.0000000000, 0.0000000000, 0.0000000000, 0.0000000000, 0.0000000000, 0.0022828423, 0.0056644132, 0.0098571377, 0.0016370870, 0.0140278671, 0.0135440817, 0.0099491542, 0.0195863821, 0.0001606394, 0.0216070807, -0.0126057699, -0.0049323400, 0.0100690098, -0.0072676748, 0.0252165939, 0.0110046955, -0.0036232669, 0.0170897556, -0.0036981059, 0.0064216826, 0.0000000000, 0.0000000000, 0.0000000000, 0.0000000000, 0.0000000000, 0.0000000000, 0.0052557987, 0.0072363953, 0.0161301872, 0.0008184650, 0.0017696344, 0.0113184882, 0.0098253460, -0.0417887960, -0.0376097565, 0.0244358920, 0.0059125981, -0.0304946700, 0.0799286500, -0.0853048610, 0.0406738980, 0.0022369973, -0.0408141534, -0.0121411343, -0.0070660935, -0.0032920876, -0.0268409350, 0.0399948031, 0.0261628857, -0.0166157884, 0.0000000000, 0.0000000000, 0.0000000000, 0.0000000000, -0.0132944209, 0.0083277936, -0.0113377935, 0.0390195274, -0.0582950228, 0.0134946203, 0.0279554468, -0.0387890100, 0.0054703387, -0.0017775097, 0.0542569116, -0.0741480145, 0.0675625401, 0.0004183630, 0.0286868080, -0.0088687525, 0.0485283113, -0.0235311417, 0.0728415109, -0.0071084545, -0.0723576127, -0.2354460634, 0.0176152201, 0.0280549546, 0.0035265406, 0.0000000000, 0.0000000000, 0.0028184009, 0.0049858710, 0.0035123189, -0.0081474422, 0.0125212550, 0.0101646540, -0.0109597508, 0.0078919700, 0.0060070760, 0.0293760098, 0.0012117257, 0.0072557372, 0.0156915937, 0.0024088990, 0.0053496253, 0.0272987463, -0.0245184001, 0.0394858791, -0.0287691389, 0.0231861340, -0.0473235037, 0.0687833522, -0.1363406390, 0.0224526863, 0.0193539055, -0.0007087847, 0.0039779609, 0.0000000000, 0.0000000000, -0.0073752242, 0.0050473381, 0.0073347502, 0.0043861538, 0.0155553266, 0.0222043134, 0.0010036476, 0.0112059944, -0.0017750825, 0.0186621673, 0.0273545055, 0.0037347588, 0.0078744403, 0.0026137161, 0.0364296010, -0.0459441228, -0.0139702582, 0.0171073260, -0.0197867775, -0.0343396598, -0.0524996256, 0.0294902000, -0.0396655849, 0.0294641909, 0.0062704621, 0.0008013068, 0.0000000000, 0.0117279771, -0.0011384446, 0.0102755988, 0.0022770620, -0.0161670979, 0.0240646105, -0.0238635087, 0.0107673463, 0.0159973819, 0.0365211870, 0.0215416407, -0.0120530191, 0.0481259913, -0.0190100070, 0.0262956057, 0.0192814397, -0.0087007993, 0.0595907943, -0.0711215360, 0.0147691548, 0.0334748833, 0.0119726727, -0.0330960019, 0.0036948161, -0.1153189401, -0.0383521843, 0.0174398554, 0.0018431621, 0.0125310750, -0.0100381050, 0.0092341258, -0.0018266856, 0.0214990971, 0.0071301298, 0.0023358506, 0.0061932018, 0.0046179279, -0.0158667982, -0.0112900945, 0.0173051532, -0.0218160611, 0.0509717531, 0.0276416773, -0.0192258918, 0.0375256188, -0.0595022021, 0.0140991241, 0.0124885835, -0.0812903499, -0.0599542459, 0.0203841606, -0.0299014719, -0.0377549607, 0.0269077363, 0.0055545412, 0.0036951210, -0.0336150000, -0.0113235926, -0.0075106914, 0.0177469556, -0.0070538098, -0.0083734627, -0.0067491671, -0.0061797437, -0.0478661788, 0.0038384197, -0.0140517901, 0.0244850529, 0.0077678092, -0.0054388833, 0.0037834372, 0.0168259809, -0.0042806440, 0.0656769809, 0.0045703074, 0.0035600516, -0.0057303921, 0.0319862457, -0.0838135006, -0.0668099998, -0.1378498272, 0.0684674237, 0.0108408744, -0.0036811708, 0.0375602421, -0.0013611511, 0.0044256311, 0.0226314949, -0.0068862206, 0.0207160766, 0.0004338010, -0.0164643959, 0.0152919470, 0.0019382311, -0.0652724558, -0.0342328889, -0.0407183550, 0.0063192473, 0.0531721402, 0.0253029304, 0.0275660672, 0.0001998286, 0.0329799972, 0.0524120696, 0.0373375110, 0.0659881749, -0.0382784497, -0.2944460067, 0.0769294426, -0.0223795520, 0.0115386994, -0.0012874998, -0.0238629918, -0.0392207140, -0.0032535999, -0.0224700491, 0.0221271546, -0.0097630319, 0.0329944745, -0.0174757722, -0.0758483251, -0.1044362559, -0.0534369547, -0.0790164372, 0.0500791509, 0.0377768838, 0.0162389075, 0.0458509393, 0.0291373913, 0.0205032928, -0.0021477296, 0.0503894487, 0.0299199012, 0.0177264180, 0.1445620059, -0.1715935773, 0.0626629292, -0.0452297069, 0.0027980764, 0.0006541414, -0.0009357161, -0.0034980784, 0.0457725453, 0.0234785202, -0.0178899600, -0.0016301288, -0.0816474550, -0.0626000214, -0.0534208247, -0.0590370241, -0.0253500400, 0.0059973366, 0.0023061615, 0.0309389669, 0.0511512962, -0.0086759765, 0.0449646525, 0.0234582010, 0.0098485712, -0.0070671090, -0.0474452277, -0.0085895352, 0.0505581969, -0.3895450436, 0.0022079446, -0.0054144585, 0.0000190076, -0.0017394673, 0.0132491002, -0.0261294923, -0.0189815381, -0.0178281810, -0.0100008718, -0.0694146319, -0.0525307709, -0.0474475242, -0.0138126629, 0.0257918887, -0.0397673338, 0.0569949886, -0.0155590381, 0.0732133116, 0.0353250721, 0.0439338667, 0.0013238904, 0.0114920602, 0.0082118913, 0.0365505989, -0.0661858302, -0.0750554546, -0.2684738677, -0.2441179574, 0.1316745919, 0.0171475524, 0.0027160941, 0.0004013853, -0.0020886928, -0.0135970725, -0.0036070679, -0.0252823518, 0.0086557270, 0.0438914225, -0.0094657528, 0.0026441973, -0.0260539619, -0.0471302491, 0.0149823367, 0.0435952266, 0.0106156619, 0.0553183205, -0.0509806912, 0.0456687986, 0.0083724523, -0.0042791593, -0.0219670082, -0.0800882908, -0.0588024980, -0.1729490507, 0.1000021474, 0.1370388255, -0.2132600104, 0.0199395842, 0.0070784872, -0.0005458321, 0.0111127999, -0.0144951401, 0.0411635355, -0.0049384105, -0.0211102957, -0.0663471986, -0.0241300969, -0.0134350050, -0.0019890251, -0.0280869432, -0.0315889010, 0.0684110898, -0.0215717105, 0.0115608783, 0.0029215158, 0.0217251760, 0.0031810984, 0.0207584909, -0.0527395972, -0.0487049058, 0.0462226978, 0.0134335936, -0.0249138953, -0.0352505641, -0.0144378059, 0.0103343844, 0.0013123349, 0.0001088396, 0.0062767831, -0.0114600749, -0.0243355582, -0.0177105695, -0.0061886685, -0.0022582084, -0.0315121386, -0.0398746818, -0.0265895123, -0.0289939749, 0.0014459477, 0.0255328748, -0.0028859416, 0.0014382126, 0.0336717501, 0.0047914705, -0.0010823777, -0.0627919584, 0.0130000533, 0.0932901390, -0.0010549145, 0.0468971339, 0.0789120771, 0.0014445061, -0.1634736083, 0.0714160816, 0.0067527071, 0.0034706084, 0.0038906313, 0.0278946228, 0.0134349044, 0.0368917068, 0.0191446340, -0.0279397133, -0.0165084027, -0.1035333831, 0.0224474328, -0.0217688884, 0.0131599954, -0.0192038650, 0.0265959069, -0.0134343885, -0.0246434048, -0.0658030763, -0.0474105527, 0.0710759483, 0.0352961514, 0.0169292139, 0.0295501223, -0.0140210514, -0.0100337473, 0.0398626382, -0.2535059761, -0.0204882184, 0.0070011141, 0.0000000000, 0.0021771763, -0.0165545528, -0.0022333674, 0.0213893960, -0.0263400512, -0.0331601280, 0.0545050202, -0.0002595489, -0.1265306052, -0.0928146108, -0.0867878568, -0.0214078161, -0.0492762003, -0.0569967426, -0.0675399648, -0.0150270350, 0.0866752702, -0.0229556450, 0.0695930790, -0.0168080007, -0.0009219223, 0.0346952613, 0.0409005974, -0.0238150441, -0.2199830676, 0.0101837097, 0.0029757251, -0.0009017883, 0.0015524109, 0.0158522733, 0.0340826051, -0.0400213801, 0.0394466388, 0.0175448028, -0.0452549532, 0.0142274941, -0.0542856871, -0.0807430296, -0.0697853018, -0.0861684809, -0.0837166281, -0.0897239207, 0.0457880831, 0.0765387334, 0.0037805417, 0.0187497419, 0.0065128675, 0.0194939152, 0.0356107369, 0.0650639135, 0.0048954005, -0.0475573942, -0.1108219252, 0.0170508776, 0.0000303337, 0.0026584367, -0.0066860356, -0.0072515414, 0.0205861385, 0.0101637011, 0.0398335040, -0.0288183026, -0.0114940416, -0.0058716997, -0.0245051546, -0.0064360295, -0.0616599713, 0.0029360307, -0.0511469586, -0.0231826433, -0.0479248228, -0.0022686843, 0.0533412423, 0.0161682926, 0.0393637754, -0.0169058509, 0.0128189040, -0.0317982931, -0.0282418304, 0.0048857197, -0.0872357734, 0.0235161356, -0.0038683013, 0.0000000000, 0.0081351665, -0.0144628365, 0.0438583444, -0.0029640993, 0.0300164144, 0.0128038168, 0.0283118470, -0.0128224916, 0.0483146901, -0.0238770494, 0.0102765639, -0.0496708316, -0.0083918818, 0.0232874778, -0.0235101128, -0.0152799343, -0.0065507581, 0.0391374866, -0.0449681906, 0.0277302433, -0.0033844495, -0.0083268351, 0.0172817884, -0.0143111032, -0.1044138673, 0.0213692014, 0.0013026520, -0.0003611779, -0.0018741543, 0.0143024605, -0.0048007501, 0.0245397523, -0.0117908094, 0.0167785621, -0.0093595687, 0.0435337860, -0.0604250707, 0.0142768248, -0.0400280719, -0.0083372294, -0.0115285738, -0.0185597605, -0.0005031780, 0.0549615442, -0.0394572237, 0.0351388170, 0.0378206010, -0.0076607939, -0.0167784108, -0.0109215669, -0.0227459143, -0.0710787628, 0.0542289776, -0.0069842922, 0.0031184743, -0.0003611770, 0.0046952117, -0.0128224568, 0.0121997466, -0.0020079289, -0.0176006998, 0.0083677822, 0.0064157550, -0.0385542113, 0.0264493045, -0.0106814146, 0.0353520411, 0.0035866249, 0.0004481432, -0.0285672209, 0.0014133751, -0.0015741449, 0.0365625286, -0.0210443354, -0.0021754295, 0.0252376158, -0.0195605664, 0.0077349825, 0.0168717956, -0.0991850305, -0.0307534709, -0.0178741860, 0.0031184752, 0.0000000000, 0.0000000000, 0.0237617743, -0.0019000981, 0.0172271905, 0.0331491467, 0.0197199927, 0.0338420904, 0.0040761947, 0.0326560565, 0.0074863917, 0.0235155198, -0.0211066712, 0.0498436984, -0.0282070736, 0.0020860653, -0.0414522235, -0.0142844770, 0.0544181356, -0.0009587813, -0.0017938272, 0.0105437233, -0.0363478470, -0.0189181488, 0.0336946877, -0.0261716293, 0.0064244149, 0.0000000000, 0.0000000000, 0.0000000000, -0.0237659218, 0.0323949191, 0.0165158021, -0.0270613534, 0.0384014464, 0.0167690107, 0.0129584238, -0.0066048941, 0.0324652034, 0.0266528189, -0.0221389032, 0.0177980270, 0.0122238509, -0.0059806832, 0.0132684526, 0.0180057004, -0.0534186992, -0.0108106034, -0.0114530522, 0.0285771240, -0.0019517574, 0.0523672603, -0.0661671063, 0.0081966643, -0.0132275817, 0.0000000000, 0.0000000000, 0.0000000000, 0.0181871630, -0.0211416178, -0.0170021173, 0.0293846148, -0.0000323265, -0.0124896311, 0.0424700741, 0.0135939227, 0.0299743533, -0.0138822504, 0.0609569744, -0.0016676023, 0.0266956840, -0.0042529172, 0.0088050645, -0.0054455591, -0.0135047496, 0.0309421918, -0.0226994467, -0.0301702752, 0.0221779107, -0.2699023768, 0.0400976459, 0.0058767663, 0.0114278585, 0.0000000000, 0.0000000000, 0.0000000000, 0.0000000000, 0.0028452888, -0.0931232686, 0.0054807570, -0.0152030347, 0.0028996941, 0.0041472546, -0.0497702347, 0.0066348490, -0.0213840449, -0.0369096105, -0.0349437283, -0.0204214666, -0.0447337917, -0.0181798241, 0.0010731531, -0.0126660456, -0.0156243272, 0.0222053683, -0.0078954670, -0.0006455243, -0.0025397508, 0.0027059716, 0.0054506023, 0.0000000000, 0.0000000000, 0.0000000000, 0.0000000000, 0.0000000000, 0.0000000000, 0.0023941756, 0.0115121309, 0.0035825451, 0.0016077538, 0.0052380188, 0.0058729622, -0.0146571144, 0.0055143783, -0.0056226309, -0.0025297048, -0.0025604942, -0.0096828052, -0.0483577499, -0.0218400438, 0.0012787898, 0.0039199578, -0.0059422932, 0.0034187062, 0.0049071243, 0.0035472518, 0.0000000000, 0.0000000000, 0.0000000000, 0.0000000000},
 {0.0000000000, 0.0000000000, 0.0000000000, 0.0000000000, 0.0000000000, 0.0000000000, 0.0000000000, 0.0000000000, 0.0000000000, 0.0000000000, 0.0000000000, 0.0000000000, 0.0074465709, 0.0070462116, 0.0023230882, 0.0023230889, 0.0000000000, 0.0000000000, 0.0000000000, 0.0000000000, 0.0000000000, 0.0000000000, 0.0000000000, 0.0000000000, 0.0000000000, 0.0000000000, 0.0000000000, 0.0000000000, 0.0000000000, 0.0000000000, 0.0000000000, 0.0000000000, 0.0088091867, 0.0087933750, -0.0227688389, 0.0223790316, -0.0035730484, 0.0258336980, 0.0080597107, 0.0136762624, -0.0094498877, -0.1440585476, 0.0579974697, -0.0899614315, -0.0120290105, -0.0005102326, -0.0075753020, 0.0063734208, -0.0449723814, 0.0002528523, -0.0126482134, 0.0037893365, 0.0000000000, 0.0000000000, 0.0000000000, 0.0000000000, 0.0000000000, 0.0000000000, -0.0001660544, -0.0081579345, -0.0075719276, -0.0079145520, 0.0169119469, -0.0634346872, -0.0194805539, -0.0416561499, -0.1327785928, -0.1591063147, -0.0248573738, -0.0116640693, 0.0012364310, -0.0265468789, -0.0716878227, -0.0373420489, -0.1101739376, -0.0084436132, -0.0270062749, -0.0166554188, -0.0013104360, -0.0477228547, 0.0117839895, 0.0019318265, 0.0000000000, 0.0000000000, 0.0000000000, 0.0000000000, 0.0031344708, 0.0038981003, -0.0059015191, 0.0337757672, -0.0557371943, 0.0448420618, -0.0794535684, -0.0944137439, -0.0117679191, -0.0911325789, -0.0445723929, -0.2881741598, -0.0445285691, -0.1021629871, -0.0308330612, -0.0197065831, -0.1208048830, 0.0310581441, -0.0407081576, -0.0053921010, -0.0167827657, 0.0139519668, -0.0443201231, -0.0114716765, -0.0006119798, 0.0000000000, 0.0000000000, 0.0054406014, 0.0148480671, -0.0633775789, -0.0044029398, 0.0212202926, -0.0750424651, 0.0714395709, -0.0568440025, 0.0416475696, -0.1045288123, -0.0228138683, -0.0454353314, 0.0758620114, -0.1053286173, -0.0806017308, -0.0273698346, -0.0292781774, -0.0608270883, -0.0072430885, 0.0268269977, 0.0029501773, 0.0370664155, 0.0004614489, 0.0267178798, 0.0042868695, -0.0053383890, 0.0042499596, 0.0000000000, 0.0000000000, -0.0184240157, 0.0285122317, -0.0142042353, 0.0067454636, 0.0106349821, -0.0122020775, -0.0112469550, -0.0051299814, -0.0091335170, -0.0227679060, 0.0086198074, -0.0780114003, 0.0517380139, 0.0010516822, 0.0629025268, -0.0020244744, 0.0323361444, 0.0349389942, 0.0078413926, -0.0028920878, 0.0033462112, 0.0009847160, -0.0182645810, -0.0050358752, -0.0198137800, 0.0043119526, 0.0000000000, 0.0089394607, 0.0028785220, -0.0381754802, 0.0310780261, -0.0008202289, -0.0298245560, 0.0051033225, -0.0063010360, -0.0309677917, -0.0283394108, -0.0935650608, -0.0738309015, -0.0876212096, -0.1102979711, -0.1253776716, -0.0983858786, -0.0789145016, -0.1033042706, -0.0400957003, -0.0391541789, 0.0000623203, -0.0108964816, 0.0525875931, -0.0125583315, -0.0119689335, 0.0099826804, -0.0168944938, 0.0081680903, 0.0054632831, -0.1298717969, -0.0143537414, -0.0392349280, 0.0645672729, -0.0147051718, 0.0477913437, -0.0237864277, 0.0324727502, -0.0305771048, 0.0381370511, -0.0789373302, -0.0417870293, -0.0815978892, -0.0893119104, -0.0823968609, -0.0150136359, -0.0404560504, -0.0021186737, -0.0010555933, 0.0164257293, 0.0179054896, 0.0490311530, -0.0256085748, -0.0240137370, 0.0003739889, -0.0426099322, -0.0029568481, -0.0664601613, -0.0016726009, 0.0616856284, 0.0158435560, 0.0177850928, -0.0401053753, 0.0315717940, -0.0920335083, 0.0249156832, -0.0416022854, -0.0379815340, -0.0305096851, -0.0370781767, -0.0898953852, -0.0409174944, -0.0980437068, -0.0281884301, -0.0050016649, -0.0315946894, -0.0309902692, -0.0046185252, -0.0667132742, -0.0285246592, 0.0106274609, 0.0087001027, -0.0098266521, -0.0094909613, -0.0017458979, -0.0156554703, 0.0456902687, -0.0446232285, -0.0704724660, 0.0445785310, 0.0048601139, -0.0032213738, -0.0125229674, -0.0346166419, -0.0610265091, 0.0121062441, -0.0818310090, -0.0038768294, -0.1121388172, -0.0748998644, 0.0264806804, -0.0450768541, 0.0138529700, 0.0032480780, -0.0173579218, 0.0233292844, 0.0010168011, 0.0378274974, -0.0785051427, -0.0293655536, 0.0028073899, -0.0115479321, 0.0008597409, 0.0084409510, -0.0092788742, -0.0579919912, 0.0614322432, -0.0780706935, -0.0792060669, 0.0378583346, 0.0268138730, 0.0368625010, -0.0314976677, -0.0178991007, 0.0276745087, -0.0333736099, -0.0993479701, 0.0014362486, -0.0827363594, 0.0360155056, -0.0377541211, -0.0335466714, -0.0161319758, 0.0015348416, 0.0338947293, -0.0661222392, 0.0542586443, -0.0131579678, -0.0474707537, 0.0090568345, 0.0179152075, -0.0986764276, -0.0211650304, 0.0488779770, -0.0483973368, 0.0200764277, 0.0360619261, -0.0532601432, -0.0500660700, 0.0429205472, 0.0489943921, -0.0228906790, 0.0493099145, -0.1421278833, -0.1481904912, 0.0505865317, 0.0501439042, 0.0047764030, -0.0037203490, 0.0667641967, -0.0573071928, -0.0416686306, -0.0611120682, -0.0266357932, -0.1095072500, -0.0124477859, -0.0250810453, 0.0172155283, 0.0173553800, -0.0068212715, -0.0016152229, -0.0132583791, -0.0299492247, 0.0034390720, -0.0292350962, 0.0495441719, 0.0427458848, -0.0172763728, 0.0841837376, 0.0388824227, 0.1734942661, -0.0049513182, -0.0778473805, 0.0340832986, 0.0610408596, -0.0239069667, -0.0130230923, -0.0026045389, 0.0024426693, 0.0303628304, 0.0160686499, -0.0616048144, 0.0680113403, -0.0101325290, -0.0277136233, -0.0001666442, 0.0053597586, 0.0126462073, -0.0073695867, -0.0233534548, -0.0226890331, -0.0248169373, 0.0211193393, 0.0065714380, 0.0495208382, 0.0872177184, 0.0708875315, 0.1012988138, 0.0547882107, -0.0621071840, -0.0405581263, 0.0431676374, 0.0118461043, 0.0535197336, 0.0415927437, -0.0634750065, 0.0271785663, 0.0604578037, -0.0487966239, -0.0039251690, -0.0863800945, 0.0050699762, 0.0263656681, -0.0153170707, 0.0017262752, 0.0359914634, -0.1176288070, 0.0014395173, 0.0499671927, 0.0382726942, 0.0299672521, 0.0943208840, 0.0147950557, 0.0300941367, 0.0271197656, 0.0638131675, 0.0583173135, -0.0618674998, 0.0056062961, -0.0011689686, 0.0673626624, 0.0583212250, 0.0013687263, 0.0931373426, 0.0034997520, 0.0058382183, 0.0487709299, -0.0615440645, 0.0223732136, 0.0182437089, -0.0678902833, 0.0012041494, 0.0019565572, 0.0175479669, 0.0699329504, -0.0151723002, 0.0416573488, -0.0273817597, 0.0127389843, 0.0042317864, 0.0432875729, 0.0510360226, 0.0398380969, 0.0486630955, 0.0410226528, -0.0425258635, 0.0128691784, 0.0446048869, 0.0637130143, 0.0410637929, -0.0286113079, 0.0627236155, -0.0087151066, -0.0686587724, 0.0656687933, 0.0849697159, -0.1485326745, -0.0113832105, 0.0481130016, -0.0136230635, 0.0014006213, -0.0213016914, -0.1246915868, -0.0098811847, -0.0564935048, -0.0091215267, 0.0007437406, 0.0422021033, 0.0720675585, 0.0167809445, 0.0132997017, -0.0309561651, 0.0679199112, -0.0343316584, 0.0539113044, 0.0741313406, 0.0258970138, 0.0547503453, 0.0173864977, -0.0004643339, 0.0873765241, 0.0375366617, -0.0374996342, -0.0339933600, 0.0329596940, -0.0381624426, -0.0230174003, 0.0148122838, 0.0000000000, 0.0068124005, 0.1300917600, -0.0376982551, 0.0287770290, -0.0238989999, -0.0015905565, 0.0390064628, 0.0160939091, 0.0461163512, -0.0259032975, 0.0113931249, -0.0459243775, 0.0320684554, 0.0842375049, 0.0284233393, 0.0520073777, 0.0453416842, 0.0942292529, -0.0525280327, -0.0351342505, 0.0447221308, -0.0491581381, 0.0855449622, -0.1104006644, -0.0141765618, 0.0158556597, -0.0179167520, -0.0066455758, 0.0112269527, -0.1112728072, -0.0264901647, -0.0312289950, -0.0258419523, 0.0379586340, 0.0015313688, 0.0166105517, 0.0679014959, -0.1010208882, -0.0831075737, 0.1042698397, 0.0982118734, 0.0142475109, 0.0151730744, 0.0376915809, -0.0911123033, -0.0600105631, 0.0565604665, 0.0012187891, 0.0160990254, -0.0365617683, -0.0179233900, 0.0682750297, -0.0856404665, -0.0558799945, 0.0356409018, 0.0084785604, -0.0139310023, 0.0214973645, 0.0738540014, -0.0012518001, 0.0998303333, -0.0875972743, -0.0382035628, -0.0245732872, -0.1011920857, -0.0651526526, 0.0730289005, -0.1684161378, 0.0165175409, 0.0776136287, -0.0199928087, -0.0280506224, 0.0184366776, 0.0039230744, -0.0560601658, -0.0637241641, 0.1214041202, -0.2044528566, 0.0176938151, -0.0423283178, -0.0474007624, 0.0285583364, -0.0157723969, 0.0000000000, 0.0126555778, 0.0407333286, -0.0509874711, 0.0253342788, -0.2482982676, 0.0965909492, 0.0057725186, -0.2028589616, 0.0430077858, -0.1306211251, -0.0132779372, -0.0020181207, -0.0838171376, 0.0245324400, 0.0180609592, 0.0696070692, 0.0031154654, 0.0100852874, -0.0280420739, -0.0475214328, -0.0292889993, 0.0297466186, -0.0219479477, -0.0386653516, -0.0342696203, 0.0346942695, -0.0016523801, 0.0039287639, 0.0215170636, -0.0887033436, 0.0650783908, -0.1080175825, 0.2977866358, -0.1999772770, -0.1904256447, 0.1774659038, -0.0643182032, 0.0246289242, -0.0418769923, -0.0366487949, -0.0383664610, -0.0457866897, 0.0268256558, -0.0786805830, 0.0480429827, -0.0252505746, 0.0016469273, 0.1186199928, -0.0804969907, -0.0052645071, 0.0352289595, 0.0022785458, 0.0289539108, -0.0102979796, 0.0056182052, 0.0039287651, -0.0061345516, 0.0923390554, -0.0814729278, 0.0020161778, -0.1346628693, -0.0404168719, 0.0045976789, -0.0714081741, -0.0802563324, -0.0357746541, -0.0162714331, -0.0506342278, -0.0245483668, -0.0650766119, -0.0354775943, -0.0352410153, 0.0121977551, -0.0212616714, 0.0616054487, -0.1042965078, 0.0756051311, 0.0510279023, -0.0220085459, -0.0004655259, -0.0280471310, 0.0191838890, 0.0056182065, 0.0000000000, 0.0000000000, -0.0124931619, -0.0248906697, -0.0193053463, -0.0502509581, 0.0037465773, -0.0061175210, 0.0037073316, -0.0329051482, -0.0048517405, 0.0032335252, -0.0356332348, -0.0042349195, -0.0120979048, 0.0112743182, 0.0336448117, -0.0186979249, 0.0179264525, -0.0276927630, 0.0199458459, 0.0212689343, -0.0683740367, -0.0019022759, -0.0025371355, 0.0028971713, 0.0117006905, 0.0000000000, 0.0000000000, 0.0000000000, 0.0071336571, 0.0333721964, -0.2229224942, 0.0106768001, 0.0645011418, -0.0574212658, 0.0537611046, 0.0522675158, -0.0555638685, 0.0521857180, -0.0298366089, -0.0184310839, 0.0063313317, -0.0373048542, -0.0072320120, -0.0128859740, -0.0197861069, 0.0294738318, -0.0211837378, 0.0019408926, 0.0092415116, -0.0042201165, -0.0047145745, 0.0331805278, -0.0026253493, 0.0000000000, 0.0000000000, 0.0000000000, 0.0057823796, 0.0099275454, 0.0489322276, -0.0300351619, -0.0107216537, -0.0346575231, -0.0287577925, -0.0584350734, -0.0047890276, -0.0539916176, -0.0553602450, -0.0321781012, -0.0508016654, -0.0262772415, -0.0492756954, -0.0415585345, -0.0193233822, -0.0547763179, -0.0001979187, -0.0387345590, 0.0019749769, 0.0069856084, -0.0231773533, -0.0046311825, -0.0043661913, 0.0000000000, 0.0000000000, 0.0000000000, 0.0000000000, 0.0031343645, -0.0147265865, 0.0226495837, 0.0059591579, -0.1010297052, -0.0226835572, -0.0644448303, -0.0511996104, -0.0926610611, -0.0556313986, -0.0934473162, -0.0813644433, -0.0714070901, -0.0596455599, -0.0568955124, -0.0430672661, -0.0233617562, -0.1773113883, -0.0384453407, -0.0148365523, -0.0068126505, 0.0078359200, 0.0076129972, 0.0000000000, 0.0000000000, 0.0000000000, 0.0000000000, 0.0000000000, 0.0000000000, -0.0023942581, 0.0153805772, 0.0018243218, 0.0058621461, -0.0329958332, -0.0071201081, -0.0343100664, 0.0111464962, -0.0296700122, 0.0107928115, -0.1205480767, 0.0067939425, -0.0244818507, 0.0156613598, -0.0147773868, -0.0046128021, 0.0534735461, -0.0018403266, -0.0013241041, 0.0103412563, 0.0000000000, 0.0000000000, 0.0000000000, 0.0000000000},
 {0.0000000000, 0.0000000000, 0.0000000000, 0.0000000000, 0.0000000000, 0.0000000000, 0.0000000000, 0.0000000000, 0.0000000000, 0.0000000000, 0.0000000000, 0.0000000000, 0.0032670059, 0.0037741922, 0.0021921405, 0.0021921410, 0.0000000000, 0.0000000000, 0.0000000000, 0.0000000000, 0.0000000000, 0.0000000000, 0.0000000000, 0.0000000000, 0.0000000000, 0.0000000000, 0.0000000000, 0.0000000000, 0.0000000000, 0.0000000000, 0.0000000000, 0.0000000000, 0.0055206437, 0.0062868118, -0.0098831954, 0.0050540007, 0.0104308579, 0.0366215924, -0.0071010892, 0.0053526283, -0.0074596157, 0.0011286572, 0.0261539768, 0.0026365224, -0.0052608516, 0.0153928684, 0.0052782537, -0.0119648394, 0.0084712347, 0.0063069283, 0.0061109646, -0.0021618093, 0.0000000000, 0.0000000000, 0.0000000000, 0.0000000000, 0.0000000000, 0.0000000000, 0.0018495432, -0.0590079262, -0.0538744972, 0.0136510196, 0.0229177973, 0.0258162821, -0.0421180436, -0.0390798611, 0.0177347089, -0.1137152815, -0.0988584024, -0.1666361958, -0.0937948684, -0.0183169263, -0.0164939036, -0.0152564983, -0.0071752764, -0.0079386535, -0.0303600546, -0.0053755200, -0.0161028808, 0.0238258287, -0.1026185870, 0.0042183618, 0.0000000000, 0.0000000000, 0.0000000000, 0.0000000000, 0.0037242344, 0.0138379246, 0.0352387774, -0.0482794272, -0.0289065865, -0.0601355517, 0.0536220074, -0.0985313241, 0.0812478654, -0.1087169975, 0.0475779037, -0.0417479485, -0.0055501331, -0.0281688543, -0.0355845745, -0.0108043744, -0.0215665387, -0.0112623781, 0.0025414366, -0.0154434577, 0.0081005206, -0.0189150712, -0.0036690656, -0.0002301741, 0.0006446747, 0.0000000000, 0.0000000000, 0.0016479205, -0.0077969258, -0.0135370236, -0.1474086510, -0.0263422926, -0.0018626265, 0.0109923826, -0.0549090500, -0.0046132893, -0.0290716960, 0.0046571635, -0.0078063293, -0.0667350751, -0.0083116963, 0.0057315922, 0.0035380272, -0.0405146684, 0.0257449133, -0.0039158347, -0.0399963064, 0.0289063681, -0.0115022356, 0.0075582991, 0.0201486555, -0.0062887184, 0.0036033114, -0.0053313714, 0.0000000000, 0.0000000000, 0.0025744218, 0.0258124170, -0.0901621179, 0.0069019428, -0.0414883357, 0.0084738057, -0.0095244623, -0.0027496212, -0.0017341248, -0.0105890419, -0.0274080544, -0.0101245113, -0.0276292991, -0.0266901754, -0.0147452545, 0.0192310672, 0.0134709033, -0.0228086562, 0.0560841414, -0.0084979363, 0.0403254779, 0.0020448609, 0.0023881474, 0.0006629633, 0.0053920547, 0.0000661085, 0.0000000000, 0.0002397891, 0.0122949142, -0.0981156944, 0.0365889951, 0.0250129114, -0.0076687038, -0.0106427037, -0.0316660833, 0.0010596881, -0.0117024891, -0.0166496019, -0.0056895547, -0.0261156848, 0.0322997358, -0.0402884925, -0.0239536269, -0.0203346864, -0.0008321436, 0.0297682619, 0.0160717625, -0.0109810328, 0.0111842342, 0.0132085692, 0.0426605870, -0.0078468772, 0.0059197667, -0.0006510946, 0.0038837234, -0.0024812020, -0.0047117697, 0.0129724725, -0.0861647632, -0.0220012195, -0.0037587596, -0.0203721637, 0.0295882076, -0.0222977521, 0.0427241868, 0.0164682009, 0.0088009069, -0.0406189664, 0.0344665963, -0.0708279504, 0.0116195957, 0.0018844025, 0.0150064283, -0.0148724677, -0.0023340859, 0.0243713721, 0.0391991157, 0.0061615056, 0.0184993833, 0.0448025301, -0.0202172188, 0.0079482226, 0.0058128140, 0.0132419485, -0.0267470356, -0.0493135455, -0.0304640953, -0.0006141212, -0.0290322508, -0.0109131900, 0.0203034822, -0.0097432005, 0.0159197942, 0.0208903641, -0.0121593952, -0.0199580398, -0.0313797374, -0.0016268200, -0.0224088202, 0.0034574592, -0.0304960828, 0.0152395698, 0.0263288820, 0.0310786837, -0.0464064718, 0.0587208257, 0.0421253411, 0.0162653963, 0.0100400265, -0.0055188827, -0.0012537203, 0.0061543828, -0.0606116921, -0.1466835086, -0.0552115853, -0.0257085926, 0.0274039891, -0.0183823515, -0.0073168951, 0.0118146541, -0.0096370116, 0.0570353654, 0.0075821897, -0.0126631029, -0.0234276201, -0.0740776614, -0.0652862675, -0.0162815209, -0.0260236871, -0.0053497471, -0.0371321954, 0.0620479817, 0.0603383300, -0.0228044007, 0.0525924961, 0.0278101451, -0.0025659717, 0.0044854460, -0.0000058125, 0.0052620307, 0.0171841929, -0.1498897216, 0.0339166632, -0.0211515852, -0.0467056987, 0.0522750191, 0.0726177256, 0.0587524582, 0.0420304655, 0.0564276619, 0.0595689646, 0.0256164764, -0.0178789268, 0.0137835603, -0.0582370865, -0.0690835171, -0.0826956796, -0.0843960117, -0.0637165680, -0.0223978149, 0.0260571635, 0.0456990863, 0.0807662039, 0.0202556672, 0.0239216675, -0.0113873810, 0.0093775104, -0.0221695427, 0.0703868320, -0.1031095106, -0.0113420443, -0.0072704292, 0.0805019848, -0.0260580193, -0.0067298508, 0.0341349588, 0.0255492982, 0.0291698205, 0.0161782893, 0.0449794358, -0.0178851877, -0.0155714134, -0.0142773594, -0.0295970777, -0.0181625689, -0.0510239096, -0.1602292477, -0.1634209607, -0.1769614070, -0.0371890613, 0.1275257318, 0.0353767809, -0.0208329809, 0.0064416726, 0.0046360379, -0.0044244649, -0.0568211117, 0.0439402247, 0.0002669229, -0.0055000401, 0.0235879042, 0.0174432685, 0.0278873547, -0.0312300911, 0.0317475501, 0.0391350410, 0.0230024314, 0.0499343058, -0.0347240736, 0.0264192882, -0.0421261454, -0.0452780374, -0.0454586602, -0.0631692124, -0.0102115822, -0.0936002200, -0.1356804614, -0.1542178539, -0.3911164098, 0.0845761618, 0.0550061295, -0.0129547611, 0.0021107270, -0.0080335305, -0.0758366286, -0.0175475506, 0.0113233509, 0.0334805375, -0.0208712301, 0.0406682897, 0.0026367287, 0.0337722887, 0.0006650593, 0.0310263863, 0.0520940902, 0.0175178071, -0.0588567823, -0.0168042986, -0.0650217319, -0.0457903089, -0.0117857394, 0.0196575411, 0.0024385035, -0.0209413073, -0.0302076607, -0.1576991084, -0.0572204029, -0.0638229803, 0.0289912652, 0.0003093016, 0.0082438540, -0.0168984565, 0.0150824353, 0.0327604969, -0.0207622276, -0.0055538814, -0.0364089922, -0.0288127695, -0.0264233138, 0.0015696986, 0.0647777520, -0.0110172515, 0.0386408041, -0.0120119685, -0.0243844839, 0.0124231902, -0.0505170084, -0.0330790555, -0.0332519598, -0.0627027964, 0.0024488358, -0.0436787748, 0.0210867840, -0.0028245335, 0.0941183862, -0.1771919009, -0.0615845498, 0.0029836265, 0.0071822820, 0.0050811934, -0.0088954550, -0.0400439847, 0.0672062363, -0.0440733372, 0.0126760045, -0.0248914615, 0.0485413063, 0.0339818974, -0.0088274800, 0.0165061390, 0.0162337374, -0.0485954156, -0.0523214330, -0.0401753202, -0.0165939853, -0.0494984167, 0.0538158793, -0.0193120362, -0.0123420149, -0.0131619738, -0.0548294386, 0.0155679463, 0.0461522967, 0.0183923280, -0.0138777023, 0.0008155887, -0.0049378568, 0.0045535995, 0.0236887970, 0.0282015923, -0.0354844443, 0.0150008725, -0.0695925001, -0.1016745735, -0.0604805311, -0.0344691975, 0.0145073547, -0.0254304425, 0.0242127789, 0.0055269714, -0.0561184433, -0.0092873431, -0.0680904435, -0.0092839168, -0.0714818160, -0.0092014803, 0.0048494779, -0.0436794022, 0.0823192133, -0.0024884015, -0.0257370129, -0.0129484248, -0.0919483872, 0.0072535104, 0.0000000000, 0.0088471593, -0.0504102749, -0.0147454276, 0.0006445021, -0.0147931996, 0.1162262457, -0.0369426994, -0.0308078899, -0.0790764168, -0.0842761575, -0.0609420748, -0.0976376574, -0.0729183386, -0.0762218887, -0.0228685343, 0.0098492825, -0.0041668763, 0.0591522154, -0.0062573469, 0.0157422897, 0.0713173395, -0.0621577121, 0.0206129076, 0.0473674966, -0.0460950081, 0.0039608894, -0.0080864995, 0.0009035820, -0.0070908502, -0.0335589371, -0.0102886293, 0.0263312991, 0.0184683319, 0.0242832651, 0.0290708599, -0.0354764507, -0.0089652810, -0.0761698086, -0.0545402169, 0.0199746157, -0.0056893634, 0.0300918150, -0.0299823397, -0.0160136348, 0.0455173537, -0.0423970195, 0.0130067322, -0.0020485594, -0.0406419218, 0.0647216685, 0.0000158749, -0.0065133423, -0.0422719472, 0.0172572116, -0.0042693839, 0.0050666493, -0.0075389465, 0.0160332092, -0.0046754593, 0.0248830004, -0.0317409399, 0.0422575359, -0.0089198254, 0.0563620051, -0.0225860069, 0.0278680388, -0.0229573334, 0.0011104024, 0.0099747763, -0.0254110881, 0.0655013272, -0.0030044975, -0.0428420299, 0.0229622205, -0.0146637128, 0.0371236938, 0.0315203897, -0.0276608493, -0.0231432991, 0.0538591612, -0.0439291555, -0.0071912974, 0.0025335351, 0.0000000000, 0.0066567821, 0.0030098539, -0.0148884357, -0.0059076881, 0.0150487433, 0.0012165561, -0.0166778404, 0.0245588698, 0.0444995607, -0.0106838139, 0.0711273468, 0.0002190377, 0.0205490725, -0.0403302495, -0.0419990557, 0.0154917992, 0.0364502555, -0.0056667211, 0.0241517780, -0.0324551060, -0.0467502148, 0.0545831974, 0.0266258311, -0.0573613860, 0.0353086578, 0.0003418077, 0.0033811318, 0.0018115287, 0.0011053495, -0.0151950844, 0.0041106299, 0.0175979818, 0.0084621434, 0.0149160105, 0.0004391774, 0.0068021387, 0.0200341114, 0.0146518860, 0.0342374169, -0.0301504937, 0.0096326523, 0.0094876076, 0.0076956320, -0.0321855948, 0.0271018019, -0.0133492249, -0.0001817452, 0.0581709700, 0.0552780899, 0.0187737757, 0.0064334020, 0.0147580738, -0.0098181823, -0.0110404009, 0.0034010157, 0.0018115296, 0.0031425982, -0.0369572019, -0.0348485236, 0.0035581207, -0.0186565493, -0.0403033944, 0.0343351983, -0.0046131420, 0.0330470838, -0.0246546106, 0.0161232701, 0.0430923048, 0.0141594558, 0.0002069279, -0.0138411155, 0.0194651505, -0.0593786903, 0.0727144436, 0.0174365887, -0.0069513517, -0.0129738801, 0.0132791493, 0.0054652315, 0.0028134665, -0.0007263210, -0.0054616393, 0.0034010165, 0.0000000000, 0.0000000000, 0.0295843524, 0.0091087708, 0.0118692819, 0.0276788767, 0.0149898247, -0.0529217860, 0.0263090768, -0.0280369050, 0.0436525483, -0.0073537052, 0.0228413070, -0.0223076947, 0.0404576431, -0.0289366555, 0.0411571437, -0.0184276943, -0.0547550840, -0.0198378503, 0.0359881653, -0.0013315518, -0.0050392980, 0.0179586252, -0.0552993440, 0.0454767814, 0.0006817634, 0.0000000000, 0.0000000000, 0.0000000000, -0.1163045299, -0.0015769681, -0.0281599443, 0.0128410227, -0.0229624584, 0.0189853625, -0.0209189700, 0.0509768184, -0.0188210175, 0.0091064799, -0.0117425682, 0.0174356966, 0.0133957909, 0.0101087688, -0.0269301664, 0.0169592909, 0.0222471532, -0.0284191929, 0.0029930742, -0.0121151557, 0.0058693804, -0.0367639095, 0.0159691864, -0.1100193845, -0.0046258868, 0.0000000000, 0.0000000000, 0.0000000000, 0.0150859231, 0.0051900442, 0.0139111365, -0.0354923294, 0.0058305736, 0.0069994390, -0.0209553459, 0.0198451394, -0.0205887175, 0.0198743250, 0.0014005763, 0.0113331909, -0.0270674235, 0.0196913065, -0.0071060671, -0.0031432517, -0.0029915391, 0.0198627668, -0.0566926975, 0.0047905334, 0.0158135919, 0.0020807159, 0.0307925045, 0.0070376825, 0.0046997377, 0.0000000000, 0.0000000000, 0.0000000000, 0.0000000000, 0.0040303109, 0.0042003447, -0.0556291355, 0.0363086660, -0.1179313218, -0.0491687812, -0.0041510128, -0.0268382749, -0.0005101774, -0.0316083099, -0.0002498442, -0.0409431447, -0.0098952523, -0.0116546180, -0.0174071353, -0.0247945760, -0.0245449125, 0.0426739369, -0.0269827492, -0.0069070243, -0.0007387701, -0.0068630622, 0.0053150220, 0.0000000000, 0.0000000000, 0.0000000000, 0.0000000000, 0.0000000000, 0.0000000000, 0.0040089056, 0.0270395105, -0.0086658054, 0.0196174138, 0.0018414353, -0.0391964380, 0.0109227716, -0.0020669814, 0.0008226132, -0.0171383310, -0.0280377039, -0.0108988516, -0.0208740994, -0.0017500975, -0.0166120628, 0.0115647889, -0.0028339237, -0.0169657945, 0.0043763734, 0.0053039648, 0.0000000000, 0.0000000000, 0.0000000000, 0.0000000000},
 {0.0000000000, 0.0000000000, 0.0000000000, 0.0000000000, 0.0000000000, 0.0000000000, 0.0000000000, 0.0000000000, 0.0000000000, 0.0000000000, 0.0000000000, 0.0000000000, 0.0100287067, 0.0074007349, -0.0004593881, -0.0004593876, 0.0000000000, 0.0000000000, 0.0000000000, 0.0000000000, 0.0000000000, 0.0000000000, 0.0000000000, 0.0000000000, 0.0000000000, 0.0000000000, 0.0000000000, 0.0000000000, 0.0000000000, 0.0000000000, 0.0000000000, 0.0000000000, 0.0075338049, 0.0087840220, 0.0261296773, -0.0188503343, 0.0129905116, 0.0041593172, -0.0027753550, 0.0018000887, 0.0038850583, 0.0088672192, -0.0105886402, 0.0087530995, -0.0097138209, 0.0060754288, 0.0179132982, 0.0143195633, 0.0139637961, 0.0166794870, 0.0147655151, 0.0066804032, 0.0000000000, 0.0000000000, 0.0000000000, 0.0000000000, 0.0000000000, 0.0000000000, 0.0085586794, -0.0076409442, 0.0207222784, 0.0085985711, 0.0004440148, -0.0046853812, 0.0038653016, -0.0040344341, 0.0301077573, -0.0076230524, 0.0258741360, 0.0163361854, 0.0109187478, -0.0009060129, 0.0303199795, 0.0041683583, 0.0240810995, 0.0067950851, 0.0124038689, 0.0361777831, 0.0010526568, 0.0332730306, -0.0116492824, -0.0045367404, 0.0000000000, 0.0000000000, 0.0000000000, 0.0000000000, 0.0042931364, 0.0052715432, 0.0108817208, -0.0214730206, 0.0178340267, 0.0204969142, -0.0041051777, -0.0016239054, -0.0066455712, 0.0082854833, -0.0195559344, 0.0040184806, -0.0108267305, 0.0257270749, -0.0146658626, 0.0112257560, 0.0143034263, 0.0291549255, -0.0026423755, 0.0066112499, 0.0042341777, -0.0011882329, 0.0280011987, -0.0106504428, 0.0149140340, 0.0000000000, 0.0000000000, 0.0085952796, -0.0121571823, -0.0094631354, -0.0002848762, 0.0192647586, -0.0517792316, 0.0180902918, 0.0064919839, -0.0365327850, -0.0050921076, -0.0229176848, -0.0593296926, -0.0192980794, -0.0165367458, -0.0557508227, -0.0207799852, 0.0235883968, -0.0575041575, -0.0050619679, -0.0049739707, -0.0155280384, 0.0022685427, -0.0000228846, -0.0401923309, 0.0062654806, -0.1698988892, 0.0623848035, 0.0000000000, 0.0000000000, 0.0046837078, -0.0279170294, 0.0000492065, -0.0308765251, 0.0419801300, -0.1020850604, 0.0862793304, -0.0995573995, 0.0612416111, -0.1080111525, 0.0344980818, -0.1147574456, -0.0214727756, -0.0425459842, -0.0661885988, -0.0418536158, 0.0530245781, 0.0114905588, 0.0473758618, 0.0316197484, -0.0393298126, 0.0327536371, 0.0335303328, -0.0208559517, 0.0010990605, -0.0177100439, 0.0000000000, -0.0019155472, -0.0039907217, 0.0152328479, -0.0095619825, -0.0088207187, -0.0218997586, 0.0288714260, -0.0443904190, 0.0186709312, -0.0785509530, -0.0313890177, -0.0133924168, -0.0090737203, -0.0788686116, -0.0037820301, -0.0728251810, -0.0078800862, -0.0995782494, -0.0651374918, -0.0825479333, -0.0425751141, 0.0161197795, -0.0000243446, -0.0865724356, 0.0326562493, -0.0309093245, 0.0415474046, 0.0031254842, 0.0218952696, -0.0105462739, -0.0740481208, 0.0204419122, 0.0962330314, -0.1153385035, 0.0692554308, -0.0519250772, 0.0303679022, -0.0011793226, -0.0368639037, -0.0514524425, -0.0610794671, 0.0057261361, -0.0342733924, -0.0651345229, -0.0363561340, -0.0289404322, -0.0235954384, -0.0489424695, -0.0147873661, -0.0963518017, -0.0624594568, 0.1208183150, -0.0021627785, -0.0197475410, -0.0251751066, 0.0051953678, 0.0062117018, 0.0179385025, -0.0794903320, -0.0795469687, -0.0455294898, -0.0040944823, -0.0304327072, -0.0747494076, -0.0679958512, -0.0259546286, 0.0011643459, -0.0448835013, -0.0189174413, -0.0631309875, -0.0745815542, -0.0285493793, -0.0525858857, -0.1400029215, -0.1183129034, -0.1614113143, -0.0577437003, -0.0129277145, -0.1409094925, -0.1623878939, -0.0301419212, 0.0508356148, -0.0010060914, 0.0006636023, 0.0069239449, 0.0588631900, -0.0298970824, 0.1198962326, -0.0255577321, -0.0642352545, 0.0768778953, 0.0664840786, 0.0007618829, -0.0307604693, -0.0263665644, 0.0027176051, -0.0866014445, -0.0034734364, -0.0952121977, -0.1020955825, -0.1364547263, -0.1031770813, -0.0682058997, -0.0138651246, -0.0081965250, -0.0727505947, 0.0434156843, -0.0419143116, -0.0675051355, -0.0593564801, 0.0210775470, 0.0019253615, 0.0147299946, -0.0497251477, -0.0488292294, -0.0487889724, -0.0655105412, -0.0113710988, -0.0626164989, -0.0138832941, -0.0467579874, -0.0390221323, -0.0052166444, -0.0492613766, 0.0122011015, -0.0482247675, -0.0170663792, -0.0434319504, -0.1052370897, 0.0068469301, -0.1468920305, -0.0135492825, -0.0658482079, -0.1009230762, 0.0000872410, 0.0363195020, -0.0303296519, 0.0145549476, -0.0926843320, 0.0084855975, -0.0000279124, 0.0843117185, 0.0021364661, 0.0039609174, 0.1717234614, -0.0269926184, 0.0323636836, -0.0349815567, 0.0083753951, 0.0274097254, -0.0603347496, 0.0181104512, 0.0528031440, 0.0071040456, -0.1148552985, 0.0405728473, -0.0759516319, -0.0514014738, 0.0591794380, -0.0534016810, 0.0278776764, -0.0157825672, 0.0572715811, -0.0179993497, -0.0147435917, -0.0232739632, 0.0655281465, 0.0069637200, 0.0063421052, -0.0694229314, -0.0536460971, -0.0375938209, -0.1404856754, 0.0076803544, -0.0084213304, 0.0708208344, 0.0482257606, -0.0633364411, 0.1035243891, 0.0070553072, 0.0062840905, 0.0002071477, -0.0637229480, -0.0131953829, 0.0455217577, -0.0163098101, -0.0604056213, -0.0482171901, 0.0317459980, 0.0585131950, -0.0081411481, 0.0079890898, 0.0120700040, -0.0249743539, -0.0512351161, 0.0025963168, -0.0004521690, -0.0193268755, -0.0694959994, 0.0235290585, 0.0849930256, 0.0978059765, -0.0237903289, -0.0360719551, 0.0023335696, 0.0889003592, -0.0438286696, 0.0420614846, 0.0060334187, -0.0335275667, 0.0963136697, -0.0470796915, -0.0202605916, -0.0205698672, 0.0083768415, 0.0007258006, 0.0635932848, -0.0695815930, 0.1067685294, 0.0073985077, -0.0257547509, -0.0150344039, 0.0161719567, -0.0000459367, -0.0081744225, 0.0725258933, 0.0886125338, -0.0664777528, -0.0069519892, 0.0097457324, 0.0443879612, 0.0514935196, 0.0435782693, 0.0178460210, 0.0915293769, 0.0237025835, -0.0144741062, -0.0215250777, -0.0295668245, 0.0582689509, -0.0576889784, -0.0021255209, 0.0036929433, -0.0116713621, -0.0458816835, 0.1127855459, -0.0159407292, -0.0047441705, 0.0221866296, -0.0161827351, -0.0259790909, 0.0014978685, -0.0013429743, -0.0349898112, -0.0301652639, -0.1235304491, -0.0309525921, -0.0115474367, 0.0391837961, 0.0169398021, 0.0169670067, 0.0344400626, 0.0302829938, 0.0191163570, -0.0030489434, 0.0836680936, 0.0215699286, -0.0291851586, 0.0315293343, -0.0035543735, -0.0598557872, 0.0939438080, 0.0726352210, -0.0760250040, 0.0339670023, -0.0369801483, 0.0174139054, -0.0142030844, 0.0062877114, 0.0083005292, 0.0058500179, 0.0368493952, -0.0545353714, 0.1285638953, -0.0345668554, 0.0444074509, 0.0472797201, -0.0770672687, 0.0927709424, -0.0278168071, 0.1199466515, -0.0531370728, -0.0304990719, -0.0103474702, 0.0261264518, 0.0053970318, -0.0573645600, -0.0138718200, 0.0300656692, -0.0638488638, -0.0113959543, 0.0362385416, -0.0489437384, 0.0175215918, -0.0186152782, -0.0167088140, -0.0017335033, 0.0000000000, 0.0075691812, -0.0000328231, 0.0443066204, -0.1987993349, 0.0928318342, -0.0670568431, -0.0519795224, 0.1372192206, -0.0263666770, 0.1000986259, 0.0828931851, -0.0091104818, 0.0188532827, 0.0791971403, -0.0696871002, -0.0456252205, 0.0297517403, 0.0197422075, 0.0416564198, 0.0680303762, -0.0247554102, 0.0271427852, 0.0189201732, 0.0152494839, -0.0169871640, -0.0228328564, -0.0140586795, 0.0086926208, 0.0039745483, -0.0133804704, 0.0197135955, 0.0258820316, -0.1016301814, -0.0300979553, 0.1240629976, -0.0592012066, 0.0629316160, 0.0275632745, 0.0080707770, 0.1094601401, 0.0222886409, -0.0313596838, 0.0409253364, 0.0489298816, -0.0021956352, 0.0550364872, -0.0396305831, -0.0337228230, 0.0248244843, -0.0409901643, 0.0182164898, -0.0629713775, 0.0225362087, 0.0168948345, 0.0017913626, 0.0005168892, 0.0091334636, 0.0862604794, -0.3708677108, -0.0098054017, 0.0310942183, 0.0151179515, -0.0449174238, 0.0276837195, 0.0284362744, 0.0537547556, 0.0988090388, 0.1048006357, 0.0052584268, 0.0357664301, 0.0473738306, 0.0155949189, 0.0458910761, -0.0011404130, 0.0500516854, 0.0260872401, 0.0042573987, 0.0253904470, -0.0076438205, -0.0051010326, -0.0227757986, -0.0398883841, 0.0020397459, 0.0000000000, -0.0024874654, 0.0315645706, -0.0560740707, 0.0694279493, -0.0110861345, -0.0565941969, 0.0216848211, -0.0312957369, 0.0235534816, 0.1004915637, -0.0285282131, 0.0908508086, -0.0253715423, 0.1292625106, 0.0003112988, 0.0652674033, -0.0469432086, 0.0398994575, -0.0184747715, -0.0240914773, 0.0006678849, -0.0437201899, 0.0140975759, -0.0454190831, 0.0064086398, 0.0126692325, 0.0051665431, 0.0026228520, 0.0195032170, -0.0248052519, -0.0111882820, -0.0576873420, -0.0662128398, -0.0785147395, -0.0012108090, 0.0434744562, -0.0028858194, -0.0086582019, 0.0773674673, 0.1046083152, 0.0803168020, 0.1042498647, 0.0414283392, 0.0140834098, 0.0771525167, 0.0261409092, -0.0014259852, 0.0620126292, -0.0959520062, 0.0430283933, -0.0421341837, 0.0523413451, -0.0340311823, 0.0108741606, 0.0034343314, 0.0026228533, 0.0061159599, -0.0190039561, -0.0211822756, 0.0131607397, -0.0063641151, -0.2219266562, 0.1374957986, -0.0461181866, 0.0253876679, 0.0627974592, -0.0154750884, 0.0171382565, 0.0206237974, -0.0261237357, 0.0937159187, -0.0052084407, 0.0565012734, -0.0360138491, -0.0120858056, 0.0213406859, 0.0595300312, -0.0140995652, -0.0084352302, -0.1644577848, -0.0242044735, 0.0239607337, 0.0034343327, 0.0000000000, 0.0000000000, 0.0242862204, 0.0173579506, 0.0518237218, 0.0620464400, -0.0292666081, -0.1098002869, -0.0279063267, 0.0203835881, -0.0831256093, -0.0528481911, -0.0302532192, 0.0125419375, -0.0257700058, -0.0215196515, 0.0182429758, -0.0993551140, 0.0898776412, 0.0143771018, -0.0054882650, -0.0357823441, 0.0218939936, -0.1236165824, 0.0321012978, -0.0572875552, -0.0488962410, 0.0000000000, 0.0000000000, 0.0000000000, -0.0158696062, 0.0210602014, 0.0232414281, 0.0155974310, 0.0095860797, -0.0913336032, -0.1217970563, -0.0379260718, -0.1331831560, -0.1496219091, -0.0088411832, -0.0938807268, -0.0279327393, -0.1001070729, 0.0413357435, -0.0010176554, 0.0064156199, -0.1184025680, 0.0095632045, -0.1006572927, 0.0098112714, 0.0270835742, -0.0009490960, 0.0132962061, 0.0005131060, 0.0000000000, 0.0000000000, 0.0000000000, 0.0086288848, 0.0019295139, 0.0041427925, 0.0345233727, 0.0512616101, 0.0580186961, 0.0189776025, -0.0210884635, 0.0508745978, 0.0280758661, 0.0226758144, -0.1409242956, -0.1129986152, -0.0835334847, -0.1264350772, -0.0145062579, -0.0201464089, 0.0196858835, 0.0055411900, 0.0523897397, 0.0249780717, 0.0141637309, 0.0039683161, 0.0086024886, -0.0008178051, 0.0000000000, 0.0000000000, 0.0000000000, 0.0000000000, -0.0064829206, 0.0211025021, -0.0086201842, 0.0197571028, 0.0544454994, 0.0156597280, 0.0736159553, -0.0357855843, -0.0092888827, 0.1158434769, 0.0926345060, 0.0703814832, -0.0232643876, 0.0749209938, 0.0213428824, 0.0179892077, 0.0131175325, 0.0041662127, -0.0064067699, -0.0186397188, 0.0079700055, 0.0019067476, 0.0086599640, 0.0000000000, 0.0000000000, 0.0000000000, 0.0000000000, 0.0000000000, 0.0000000000, 0.0020085808, 0.0085752687, 0.0118116857, 0.0053813719, 0.0260905557, 0.0211252041, -0.0153183936, 0.0386546000, 0.0273303978, 0.0090685689, 0.0211784819, 0.0232375362, 0.0501659874, -0.0175425529, 0.0237838898, -0.0106060052, 0.0246641576, 0.0036712830, 0.0045825773, 0.0092909931, 0.0000000000, 0.0000000000, 0.0000000000, 0.0000000000},
 {0.0000000000, 0.0000000000, 0.0000000000, 0.0000000000, 0.0000000000, 0.0000000000, 0.0000000000, 0.0000000000, 0.0000000000, 0.0000000000, 0.0000000000, 0.0000000000, 0.0091050791, 0.0071644317, 0.0003478229, 0.0003478236, 0.0000000000, 0.0000000000, 0.0000000000, 0.0000000000, 0.0000000000, 0.0000000000, 0.0000000000, 0.0000000000, 0.0000000000, 0.0000000000, 0.0000000000, 0.0000000000, 0.0000000000, 0.0000000000, 0.0000000000, 0.0000000000, 0.0073421473, -0.0025511125, 0.0108985488, -0.0098152715, -0.0153650535, -0.0145948907, 0.0158365982, 0.0268583809, -0.0448118332, -0.0204352386, 0.0334765164, -0.0114742131, 0.0027865554, 0.0180361970, 0.0094465075, -0.0069713275, 0.0094918585, -0.0120932105, 0.0144649944, -0.0055123752, 0.0000000000, 0.0000000000, 0.0000000000, 0.0000000000, 0.0000000000, 0.0000000000, 0.0128971964, -0.0147809142, 0.0163633396, 0.0170639991, -0.0087674125, 0.0158247543, 0.0315746414, 0.0545727876, -0.0071936629, -0.0339420606, 0.0934015903, 0.0136283087, 0.0888295281, 0.0696631187, 0.0116081818, 0.0716183381, 0.0887769300, 0.0406182835, 0.0337012418, 0.0178746551, -0.0046330930, 0.0087994669, 0.0055779944, 0.0163396896, 0.0000000000, 0.0000000000, 0.0000000000, 0.0000000000, 0.0119686977, -0.0083003450, 0.0282415883, -0.0331502323, 0.0617047738, -0.0188297181, 0.0218738407, -0.0610987994, 0.0927934805, -0.0527983747, -0.1030220117, -0.1936277928, -0.1073614783, -0.1887554120, -0.0364945388, -0.0559936819, -0.0901797865, 0.1184070057, -0.0311150166, -0.0623585924, 0.0697997421, -0.0320912028, 0.0113675116, 0.0109395912, 0.0115742022, 0.0000000000, 0.0000000000, 0.0108114728, 0.0082692417, 0.0340262099, 0.0405597665, -0.1195531399, -0.0181435364, -0.1131234754, -0.0193309428, -0.0213848593, -0.4574517874, -0.0182283434, 0.0222207145, 0.0055425716, -0.0814018052, -0.0599777107, -0.1497856488, -0.1162639902, -0.1835761289, -0.0454300590, -0.0719775863, 0.1016002175, -0.0733976042, 0.0614621215, 0.0296894695, 0.0016430166, 0.0137035202, 0.0003125756, 0.0000000000, 0.0000000000, 0.0113766019, -0.0387111533, -0.1163923417, 0.1354719908, -0.0396761804, -0.0091064816, 0.0289765401, 0.0511238730, -0.0149514878, -0.0552513901, -0.0097572792, -0.0250191988, 0.0101920799, -0.0476000324, 0.0035370871, -0.1810014561, -0.0271133106, -0.1871327918, -0.1473464120, -0.0446565754, -0.1048835379, -0.2219038426, 0.1104907027, -0.0051955232, -0.0010997673, 0.0103387050, 0.0000000000, 0.0019421693, -0.0018879845, 0.0290450969, 0.0035697301, -0.0217656394, 0.0414475953, -0.0366956717, 0.0766322790, -0.0309736821, 0.0361914729, 0.0532510258, 0.0445291728, -0.0451275922, 0.0260996781, -0.0432235393, 0.0120518645, 0.0262396073, -0.0202850936, 0.0332713884, -0.0592105474, 0.0256910475, 0.0074609644, -0.1194396919, -0.0007336419, -0.0603294634, -0.1105510605, 0.0239670777, 0.0100058971, 0.0066434360, -0.0120066707, 0.0083401513, -0.0027549906, -0.0033523168, 0.0260567842, 0.0358436731, -0.0485237124, 0.0650042211, 0.0632219504, 0.0024200765, 0.0506697338, 0.0346919524, -0.0419803511, -0.0178407378, -0.0001682009, 0.0352914364, 0.0425532801, -0.0198946431, 0.0469079511, 0.0729929038, -0.0145488107, 0.0273404086, 0.0107449106, -0.0186340916, -0.0005471562, -0.0083908733, -0.0130598713, 0.0198428812, 0.0217228578, 0.0130159195, -0.0061955400, -0.0003223969, -0.0100444834, 0.1118183356, 0.0499860872, -0.0067550839, 0.0322745209, 0.0491092264, 0.0612997084, -0.0070644952, 0.0032977453, 0.0593366782, 0.0151895505, 0.0094079550, 0.0386514637, 0.0257243607, 0.0427852911, -0.0487701663, 0.0118197187, 0.0402154457, -0.0495274058, -0.0353230346, -0.0209804285, 0.0129312151, 0.0184260743, 0.0085385265, -0.0139341583, 0.0049175006, 0.0394640595, 0.0162135522, -0.0004020829, -0.0353726617, 0.0346913706, 0.0437801714, -0.0192307866, -0.0091880109, 0.1469248240, -0.0177139078, 0.0980232968, 0.0074266489, 0.0173102308, 0.0913443503, 0.0437738179, 0.0132341868, -0.0286473613, 0.0543438281, -0.0178151571, 0.0240935602, 0.0222842577, -0.0310197504, -0.3562621455, 0.1010289274, 0.0175170534, -0.0022241583, 0.0379783106, -0.0219566224, 0.0292767551, 0.0195443104, 0.0163349351, 0.0442862611, -0.0256383232, 0.0378444970, -0.0033884565, -0.0256794985, -0.0632653295, 0.1479968473, -0.0143577808, 0.0708299886, 0.1060498053, 0.0085290671, 0.0169341099, 0.0492098028, 0.0696656127, 0.0070126756, 0.1052185070, -0.0244209975, -0.0424068002, 0.0322012920, -0.0199002816, 0.0140440425, 0.0114333837, -0.0296455838, 0.0374310761, -0.0039451953, -0.0035682054, 0.0208717614, -0.0053178789, 0.0115723622, -0.0920218629, 0.0068269015, 0.0564076855, 0.0577297036, -0.0550429745, 0.0762284412, 0.0565330392, 0.0520554954, 0.0052409648, 0.0358848493, 0.0454859070, 0.0068339371, 0.0486878948, -0.0279633840, 0.0318816076, -0.0464354808, 0.0516046543, -0.0547048102, -0.0566598871, -0.1141882862, 0.0073564053, 0.1422719264, 0.0088564801, 0.0209891655, 0.0255153427, 0.0052039213, -0.0726293814, 0.0536426819, 0.0953069104, -0.0269518360, -0.0996526015, -0.0036295789, -0.0622084613, -0.1570427016, -0.0783274403, 0.0672999451, 0.0610508642, 0.0397159275, 0.0490717818, -0.0021511553, -0.0225376208, -0.0758819544, 0.0551803124, -0.0546038421, -0.1097337033, 0.0088336835, -0.0294999734, 0.1112447752, 0.0004524739, -0.0615983589, 0.0044545226, 0.0189204585, -0.0171647654, -0.0030775009, 0.0624027349, -0.0566425994, -0.0919216398, -0.0371077901, 0.0090109598, -0.0028238395, -0.1224212053, -0.1208915965, -0.1255656697, -0.0135033896, -0.0045178752, 0.0000409604, -0.0688476134, -0.1087192419, 0.0095928371, 0.0543154062, 0.0086438938, -0.0825768143, 0.0755574934, -0.0205440605, 0.0426208361, -0.1795750241, 0.0013648624, 0.0217688276, 0.0363584924, -0.0217646813, 0.0194926772, 0.0283724323, -0.0887805471, 0.0244270981, 0.0448053389, -0.0455387340, -0.0368693861, -0.0666353404, -0.1349027897, -0.0406288133, -0.0597506224, -0.0337827397, 0.0123908462, -0.0194926541, 0.0348662093, 0.1725878044, 0.0242765793, -0.0331102161, 0.0154232940, 0.0693438384, -0.0346183502, 0.0060387478, -0.2282476214, 0.0214007194, 0.0035374184, -0.0017608767, -0.0266820628, 0.0506341189, -0.0270216759, -0.0175255668, -0.0001881113, -0.0499314879, -0.0792584013, -0.0466811226, -0.0319160807, -0.0609043095, -0.0453256065, -0.0855198219, -0.0535718829, 0.0232372230, -0.0764882062, 0.1026209118, 0.0425888562, -0.0555351255, 0.0603109055, 0.0460516170, 0.0786564105, 0.0144299712, -0.0189177667, -0.0243625499, -0.0170159185, 0.0109824192, 0.0118151268, -0.0022943262, -0.0240205299, -0.0550674939, 0.0159002670, -0.0465988832, -0.0111456627, 0.0853749473, -0.0625475415, 0.0356886131, -0.0409633677, -0.1668235080, 0.0279846905, -0.0098335850, -0.0898665656, 0.0415986977, 0.0114498257, 0.0113915594, -0.0017803126, 0.0550867339, 0.0287242557, 0.0134141294, -0.0133215928, -0.0173469281, 0.0014313281, -0.0845179424, -0.0959853319, -0.0052796120, 0.0000000000, 0.0094228119, -0.0349072893, 0.0372040480, -0.0016453445, 0.0148412993, 0.0142200569, -0.0714082187, -0.0476992446, 0.0206064233, -0.1727110182, 0.0425992494, -0.0129830336, -0.0429426953, 0.0057058394, 0.0053880932, -0.0319175429, 0.0249134980, 0.0712386330, -0.0556754592, 0.0923475223, -0.0884755431, 0.0050788500, -0.0301015676, 0.0390391798, 0.0107407787, 0.0274433230, -0.0158856378, 0.0031435852, 0.0026453297, 0.0224497446, -0.0416002714, -0.0326199237, 0.1291054861, -0.1934024498, 0.0565975675, -0.0148337244, -0.0696530449, -0.0299275639, 0.0034115963, -0.0571070851, 0.0750445258, -0.0365856680, -0.0426365947, -0.0087772272, -0.0784356461, 0.0481757628, -0.0322276855, -0.1140132483, 0.0697595669, -0.0143917066, -0.0005786606, -0.1103810334, -0.0641411328, 0.0371158451, 0.0147292625, -0.0036119902, 0.0240298655, 0.0563046795, 0.0543289810, 0.2172123632, -0.1929103132, 0.0081654463, -0.1589424508, 0.0172072147, -0.0256633967, -0.1461668169, 0.0323330519, 0.0368596448, -0.0328090898, 0.0418011035, -0.0488355465, -0.0606113734, 0.0127863441, -0.1226048194, 0.0063107935, 0.0899900697, -0.1095159845, 0.0523768423, -0.2846685645, 0.1478589552, -0.0565045438, -0.0808612143, -0.0164522886, 0.0000000000, 0.0019649127, -0.0059729040, -0.1505490752, -0.4642396780, -0.0452329787, -0.0643209823, -0.2399236458, 0.0546426915, -0.1546674145, 0.0205573353, -0.0204585019, 0.0389651743, -0.0529265055, 0.0102466674, 0.0077346631, -0.0873952137, -0.1094994488, -0.1483726643, -0.0316085978, -0.2465331798, 0.0911120528, -0.1853692268, 0.0114410453, 0.0522290799, -0.0443568627, 0.0205960769, 0.0083663805, 0.0024531724, 0.0212806032, 0.0046691400, -0.0829723825, 0.2071641490, 0.1465097356, -0.1625659109, -0.0458011770, 0.0004006392, -0.0553275487, 0.0000957202, 0.0034290878, -0.0030285279, -0.0106288393, -0.0512150253, -0.0502804247, -0.0119021760, -0.0398562504, 0.0282566097, -0.1658548091, -0.0155116329, -0.1555601807, 0.0281197269, -0.0931755772, -0.0466503887, 0.0886382693, -0.0069980789, 0.0075598614, 0.0024531740, 0.0010240683, 0.0308354934, -0.1423061336, -0.1789945716, 0.0512977822, -0.0754714273, 0.0276616120, 0.0650137844, -0.0132230767, -0.0078728178, -0.0944086963, 0.0477527869, -0.0375286596, -0.0018084853, 0.0473953589, 0.0070327320, -0.0435640442, -0.0465096056, 0.1159851531, -0.0618929488, 0.0933317215, -0.0568117917, -0.0649872558, -0.0587971494, 0.0077913529, -0.0395577050, 0.0075598630, 0.0000000000, 0.0000000000, 0.0026700134, -0.0759045741, 0.0696826444, -0.0357524588, -0.0182205114, 0.0683074272, -0.1556387121, -0.0218607300, -0.0380106286, -0.0422056522, -0.0514952768, -0.0343748250, -0.0395198372, -0.0886539941, -0.0133328623, -0.0314890192, -0.0337669322, -0.1108043486, -0.0006982672, -0.1581917349, 0.0123233252, -0.0934103103, 0.0143995749, 0.0319598561, -0.0007883167, 0.0000000000, 0.0000000000, 0.0000000000, 0.0038127012, -0.0120185362, -0.0183803262, 0.0435317896, 0.0313738591, 0.0051071275, 0.0326874180, -0.0271000490, -0.0085529200, -0.0250428094, -0.0649852810, 0.0213242106, -0.0129218125, 0.0300391152, -0.0222194546, 0.0347220362, -0.0578780161, 0.0231893849, 0.0164224492, -0.0251108599, 0.0126453880, -0.0005539901, -0.0175805733, -0.0029147205, 0.0133968083, 0.0000000000, 0.0000000000, 0.0000000000, -0.0225310962, 0.0162209783, 0.0102695401, -0.0128918416, -0.0119838643, -0.0046976889, -0.0008274369, 0.0249083076, -0.0151023203, 0.0384524151, 0.0356512966, -0.0047634425, 0.0146203922, 0.0026972461, -0.0065819297, -0.0037076616, 0.0078623332, -0.0271011218, -0.0023557222, 0.0171097821, -0.0043754432, -0.0529440959, 0.0158212840, -0.0077311045, 0.0116233868, 0.0000000000, 0.0000000000, 0.0000000000, 0.0000000000, 0.0022898531, -0.0028910847, -0.0131928868, -0.0006696418, 0.0006035933, 0.0012711646, 0.0003362940, 0.0048720387, -0.0057174763, -0.0171825273, 0.0096865851, -0.0100874457, 0.0150270193, 0.0049495178, 0.0010279346, 0.0103411500, 0.0139505408, -0.0222861256, 0.0020077268, 0.0148055310, 0.0001762585, -0.0604786231, 0.0064980968, 0.0000000000, 0.0000000000, 0.0000000000, 0.0000000000, 0.0000000000, 0.0000000000, 0.0148654629, 0.0176685883, -0.0029824344, -0.0052915803, 0.0076179362, -0.0139592506, 0.0168441899, -0.0055365257, -0.0062148751, 0.0333688001, -0.0050383910, 0.0193128332, -0.0156333612, 0.0440750844, -0.0075397734, 0.0178464887, -0.0110096773, 0.0163717404, -0.0101555149, 0.0227164079, 0.0000000000, 0.0000000000, 0.0000000000, 0.0000000000},
